{"generated_at": "2026-04-28T12:32:28.961Z", "seed": 12345, "config": {"inputDim": 1536, "outputDim": 1536, "numLayers": 3, "attentionHeads": 12, "dropout": 0.1, "maxNodes": 50, "useResidual": true, "useLayerNorm": true, "activation": "relu"}, "layer_ids": ["input_projection", "layer1", "layer2", "layer3", "feature_projection"], "layer_weights": {"input_projection": {"inDim": 1536, "outDim": 1536, "seed": 12345, "first_row_sample": [0.0034379928838461637, 0.0010585663840174675, -0.0001243875885847956, 0.014291238971054554, -0.011897645890712738, 0.02303444966673851, 0.034274935722351074, -0.019450942054390907, -0.030174238607287407, 0.013958807103335857]}, "layer1": {"inDim": 1536, "outDim": 1024, "seed": 12346, "first_row_sample": [-0.015109940432012081, 0.011300954036414623, 0.0002919780381489545, 0.013126633130013943, 0.018400786444544792, 0.0017059700330719352, 0.02700923942029476, 0.0068720546551048756, 0.0003869769279845059, 0.002809547819197178]}, "layer2": {"inDim": 1024, "outDim": 1280, "seed": 12347, "first_row_sample": [-0.015437374822795391, -0.01231518853455782, -0.012548880651593208, 0.024690410122275352, -0.005945066921412945, 0.01805819943547249, -0.008034280501306057, 0.013990519568324089, 0.002799304435029626, -0.00669301999732852]}, "layer3": {"inDim": 1280, "outDim": 1536, "seed": 12348, "first_row_sample": [0.004442289471626282, 0.02795855514705181, -0.0008077137172222137, 0.03020545095205307, -0.024863172322511673, -0.019987137988209724, -0.003607368329539895, -0.013530253432691097, -0.018364103510975838, -0.01838299073278904]}, "feature_projection": {"inDim": 1536, "outDim": 1536, "seed": 12349, "first_row_sample": [-0.025838984176516533, -0.010253136046230793, -0.019841935485601425, 0.018966136500239372, -0.004863389767706394, 0.0038953288458287716, -0.0070553426630795, 0.01759161613881588, 0.03430965915322304, 0.033824194222688675]}}, "fixtures": [{"name": "random_1", "seed": 12345, "input": [0.09527645260095596, 0.029335852712392807, -0.003447130089625716, 0.39605045318603516, -0.329717218875885, 0.6383493542671204, 0.949854850769043, -0.5390403270721436, -0.8362130522727966, 0.38683781027793884, 0.24088753759860992, -0.28775298595428467, -0.7452138662338257, -0.9647135138511658, 0.5565752983093262, 0.8382627367973328, -0.8487300276756287, -0.6957412958145142, 0.9701663851737976, 0.7596430778503418, 0.5697495341300964, -0.3432943522930145, -0.8540214896202087, 0.9407474994659424, -0.30524563789367676, -0.3756091296672821, -0.6370847225189209, -0.9556658267974854, -0.43074333667755127, 0.3482624590396881, -0.62510746717453, -0.6142094731330872, 0.1347886174917221, -0.20229992270469666, -0.38282907009124756, 0.9051089882850647, -0.28906717896461487, 0.11157234758138657, 0.3244219124317169, 0.2784685790538788, -0.3990687429904938, -0.6956810355186462, -0.9473873376846313, -0.3020308315753937, -0.583789050579071, 0.08076563477516174, -0.6263110041618347, 0.09434673190116882, -0.990328311920166, -0.2428317666053772, -0.030134379863739014, 0.5142471790313721, -0.7875581979751587, -0.2865377962589264, -0.6418149471282959, -0.01586936227977276, 0.26751330494880676, 0.7186239957809448, 0.35473981499671936, 0.5986282825469971, -0.3590393662452698, 0.2848680019378662, -0.4108961522579193, -0.03594091907143593, -0.08507025986909866, -0.5374120473861694, -0.8884238600730896, 0.4790607988834381, 0.39977332949638367, 0.45953360199928284, -0.3374394476413727, -0.1170390397310257, 0.7268955707550049, -0.038433630019426346, -0.7449833154678345, -0.013512315228581429, 0.8771273493766785, -0.7750832438468933, 0.5563321113586426, -0.7544831037521362, 0.12057038396596909, 0.7826035618782043, -0.39195889234542847, -0.5276268720626831, 0.9804929494857788, -0.3350954055786133, -0.7239962220191956, 0.7744061350822449, -0.755946934223175, -0.11860410124063492, -0.21943299472332, 0.621711790561676, -0.7391353249549866, 0.2206805944442749, -0.5672979950904846, 0.09617495536804199, 0.406023234128952, -0.6630425453186035, -0.375885546207428, -0.9887776374816895, 0.2009061872959137, -0.48874565958976746, -0.745296061038971, 0.16170157492160797, 0.7793837189674377, -0.5166183114051819, 0.01726962812244892, 0.6956252455711365, -0.3115151524543762, 0.5592417120933533, -0.6636672019958496, -0.5599472522735596, -0.6841784715652466, 0.3345023989677429, -0.39517372846603394, -0.8630154132843018, -0.8349869847297668, -0.018078088760375977, -0.7342389225959778, 0.714926540851593, -0.9812607169151306, -0.4722209572792053, 0.5363522171974182, 0.6005756855010986, -0.06947579979896545, 0.8455832600593567, 0.20650947093963623, -0.47119057178497314, 0.929304301738739, -0.8395194411277771, 0.5988309979438782, -0.6198533177375793, -0.4650469422340393, 0.9736180305480957, -0.8051422834396362, -0.8162564039230347, -0.30021771788597107, -0.11884113401174545, -0.3875011205673218, 0.9444125890731812, 0.20535041391849518, -0.9212576150894165, -0.24621199071407318, 0.013158785179257393, -0.13184237480163574, 0.27326473593711853, 0.8515525460243225, 0.26035091280937195, -0.18518376350402832, 0.315815806388855, 0.8720850944519043, -0.7192147374153137, -0.02669510617852211, -0.6768078804016113, 0.46849605441093445, 0.3275003433227539, -0.5580651164054871, -0.4501471519470215, 0.3064330518245697, 0.8895405530929565, 0.16112133860588074, 0.7499426603317261, -0.699617862701416, -0.13112801313400269, -0.3900245130062103, -0.29676491022109985, 0.9612956047058105, 0.33521905541419983, -0.8991658091545105, -0.7274565100669861, 0.13639508187770844, 0.27935442328453064, -0.2672836184501648, 0.9168693423271179, -0.16656026244163513, -0.5006930232048035, 0.5530627369880676, 0.24779099225997925, -0.7753841280937195, -0.7985686659812927, 0.15942808985710144, -0.0263753030449152, 0.09196039289236069, -0.9497173428535461, 0.2947119474411011, -0.3622451722621918, 0.798160970211029, -0.7843590974807739, -0.9910151958465576, -0.1375112384557724, 0.32431378960609436, 0.7065226435661316, -0.3281221389770508, 0.741405189037323, -0.6885414123535156, 0.21017351746559143, -0.15112243592739105, -0.41001927852630615, -0.6448636651039124, 0.07001157104969025, -0.4754664897918701, -0.20848442614078522, -0.14778530597686768, 0.8215911984443665, 0.600578248500824, 0.2755230665206909, 0.42721331119537354, 0.3854793906211853, 0.03539413958787918, -0.2636723220348358, 0.2490784078836441, -0.1723393350839615, 0.9202407002449036, -0.2990897297859192, -0.2928716540336609, 0.8946359157562256, 0.04916536808013916, -0.5585199594497681, 0.6919492483139038, -0.6030247211456299, 0.19464442133903503, -0.6234403252601624, -0.8516098856925964, -0.6785097718238831, 0.3754613697528839, -0.4837456941604614, -0.6350618004798889, 0.7344499826431274, -0.9229518175125122, -0.5163854360580444, -0.3448024392127991, 0.5177406072616577, 0.7734285593032837, 0.4858269691467285, -0.37546420097351074, 0.5787090063095093, -0.5939264893531799, -0.39182570576667786, 0.9844904541969299, 0.8411622047424316, 0.8062342405319214, -0.8546603918075562, 0.6716272830963135, -0.023292342200875282, -0.6991477012634277, -0.8532246351242065, -0.17951321601867676, 0.9355277419090271, -0.0818076804280281, -0.43786394596099854, -0.5348926186561584, -0.9576817154884338, -0.9146219491958618, 0.7864367961883545, -0.33612722158432007, 0.40131276845932007, 0.6754717826843262, -0.7857204079627991, 0.4432695508003235, -0.5990047454833984, -0.3838622570037842, 0.8905758261680603, 0.5238709449768066, 0.2197778970003128, -0.19779856503009796, 0.7217251062393188, 0.16141286492347717, -0.4478253424167633, 0.7981665730476379, 0.5698670148849487, -0.9104557037353516, 0.3383484482765198, 0.4518534243106842, -0.010859694331884384, 0.2702234983444214, -0.37888386845588684, 0.8411315083503723, 0.7882654070854187, -0.5649901032447815, 0.4222968518733978, -0.6162093877792358, 0.6475778818130493, 0.3989841938018799, -0.7013995051383972, 0.18244223296642303, 0.4396046996116638, -0.706419825553894, -0.6851360201835632, -0.648254930973053, -0.704606831073761, -0.39457762241363525, 0.6262543797492981, 0.7991445660591125, 0.6155176162719727, -0.25433796644210815, -0.003398331580683589, 0.5745120048522949, -0.635400116443634, -0.3823040723800659, -0.6997805237770081, -0.5653436183929443, -0.6995136737823486, 0.18647831678390503, 0.73383629322052, -0.05117166042327881, -0.5574571490287781, -0.4360295534133911, 0.030960552394390106, -0.05649108067154884, 0.21656741201877594, 0.3979741930961609, -0.47242653369903564, 0.09131074696779251, -0.08207358419895172, 0.9100728631019592, 0.9779362082481384, 0.33468568325042725, -0.0754631757736206, -0.14970450103282928, 0.016740741208195686, 0.8388043642044067, -0.2504042983055115, 0.051344987004995346, -0.3086698055267334, 0.8539254069328308, 0.593593955039978, 0.05261039361357689, -0.9110822081565857, 0.7549988031387329, 0.8037132620811462, -0.33358848094940186, 0.5805224180221558, -0.3723175823688507, -0.5444551706314087, 0.19072026014328003, -0.07126088440418243, 0.36379387974739075, -0.9273879528045654, 0.3808237910270691, 0.6586672067642212, 0.5629019737243652, 0.4087929427623749, 0.8238563537597656, -0.57707679271698, -0.039767228066921234, 0.4868658483028412, -0.21353039145469666, -0.5072108507156372, 0.22370383143424988, -0.8916680812835693, 0.09698732942342758, -0.8732626438140869, 0.4609978497028351, -0.4873603284358978, -0.08043201267719269, 0.8338000774383545, 0.8737990856170654, 0.21764566004276276, -0.8677923679351807, 0.9613636136054993, 0.10660339146852493, -0.751918375492096, -0.9709758758544922, -0.29761427640914917, 0.8443933129310608, 0.41961178183555603, -0.3891787827014923, 0.6314885020256042, -0.32535257935523987, 0.631330132484436, -0.6085336208343506, -0.8629181981086731, -0.11940811574459076, -0.9482000470161438, -0.2971465289592743, -0.9662222862243652, -0.662722647190094, -0.5679000616073608, -0.9732186794281006, 0.014942679554224014, 0.7197272181510925, -0.6058064699172974, 0.38194242119789124, 0.6742035150527954, -0.21265795826911926, -0.5122608542442322, -0.8712720274925232, -0.27426838874816895, -0.6688461303710938, -0.6199149489402771, -0.2353193610906601, -0.5688610672950745, 0.744117021560669, -0.8033174872398376, -0.017799699679017067, -0.7979377508163452, -0.24335739016532898, 0.1814684271812439, -0.3462859094142914, 0.5533736944198608, -0.9542969465255737, 0.02022833190858364, -0.9186217784881592, 0.2402127981185913, -0.751619815826416, 0.6561888456344604, -0.13743725419044495, 0.12166903913021088, 0.028714021667838097, 0.11865228414535522, -0.4911724627017975, -0.40910252928733826, 0.726189374923706, -0.18612851202487946, -0.2699063718318939, -0.4459034502506256, 0.12297352403402328, 0.740249514579773, 0.4690735638141632, -0.819713294506073, 0.15924906730651855, 0.022444304078817368, 0.5620766878128052, -0.791628897190094, 0.12610074877738953, 0.7663533091545105, 0.3722996711730957, -0.5597980618476868, -0.8717019557952881, -0.17807632684707642, -0.9389844536781311, -0.9612933397293091, -0.15945397317409515, 0.760786235332489, 0.2185492068529129, 0.7021289467811584, -0.5286728739738464, 0.875440239906311, 0.49879640340805054, -0.7611919641494751, -0.33769285678863525, 0.1590389460325241, -0.6537278890609741, 0.5543662905693054, 0.35246291756629944, 0.5431042313575745, 0.7478257417678833, -0.3174441456794739, -0.43472206592559814, -0.9862115383148193, 0.9855626225471497, 0.7123254537582397, 0.2717142701148987, 0.5015683770179749, 0.17861966788768768, -0.26266899704933167, 0.8707997798919678, 0.22717899084091187, -0.10070530325174332, -0.946550726890564, -0.7352803349494934, 0.027022257447242737, 0.03575807809829712, -0.18500150740146637, -0.6897096037864685, -0.6610718965530396, -0.47588446736335754, -0.5234948992729187, -0.49803686141967773, -0.0005751352291554213, -0.1838860660791397, -0.626172661781311, -0.9709556698799133, -0.6157016754150391, 0.93895423412323, -0.8885268568992615, 0.9165748953819275, -0.02376744896173477, -0.7553578019142151, 0.6707494258880615, -0.18705116212368011, 0.2812822461128235, 0.28608599305152893, -0.4849138557910919, 0.6850144863128662, -0.43121591210365295, -0.9533208608627319, -0.5865495800971985, -0.4472058415412903, -0.4833032488822937, -0.5123100876808167, 0.4004564583301544, 0.46109944581985474, 0.02282128669321537, -0.6953080892562866, -0.7792441248893738, -0.9117307066917419, 0.1289973109960556, -0.0772843062877655, 0.3329286575317383, 0.6659882068634033, -0.6855025291442871, -0.4216192662715912, -0.1835414171218872, -0.7051897048950195, -0.1752731055021286, -0.9028403759002686, 0.34713464975357056, -0.39126500487327576, -0.23111286759376526, 0.4538559913635254, 0.5086376667022705, -0.9835174083709717, 0.9449254274368286, 0.614375114440918, -0.1888747662305832, -0.8689204454421997, -0.6518625617027283, 0.5964436531066895, -0.16425488889217377, -0.6098995804786682, 0.8911159038543701, 0.6925767660140991, -0.7523536086082458, 0.3872684836387634, -0.5147610902786255, -0.7001772522926331, -0.9493398666381836, 0.9920339584350586, 0.3840014934539795, 0.6025590896606445, -0.3361213803291321, -0.005850180517882109, -0.2358122020959854, -0.3759136199951172, 0.5401516556739807, -0.7527301907539368, 0.9500357508659363, -0.46076446771621704, 0.6588379740715027, -0.23266008496284485, 0.8731631636619568, -0.5397582054138184, -0.29814478754997253, 0.3719823658466339, -0.4544954001903534, -0.8934792876243591, -0.6023001074790955, 0.2592553198337555, 0.33806112408638, -0.05520257726311684, -0.006049725692719221, 0.18865284323692322, 0.6858682632446289, -0.42858415842056274, 0.47882193326950073, -0.7142779231071472, -0.4660550057888031, 0.8892812132835388, 0.5523067116737366, 0.618158757686615, 0.32793769240379333, 0.338808536529541, 0.23990391194820404, 0.38073739409446716, 0.564246416091919, -0.5445210337638855, -0.05328133702278137, 0.021860452368855476, -0.5172193050384521, -0.8372554779052734, 0.5344968438148499, -0.08577191084623337, -0.8136738538742065, 0.2838604152202606, -0.9532269835472107, 0.33313313126564026, 0.03661278635263443, 0.3011125326156616, -0.38964682817459106, -0.9595561027526855, 0.21801283955574036, -0.5934923887252808, 0.7699642777442932, -0.48172277212142944, 0.2797698378562927, -0.6158962845802307, 0.761296272277832, -0.8005518913269043, 0.8140071034431458, 0.7586857676506042, 0.8524172902107239, 0.09972641617059708, 0.30951184034347534, -0.2883113622665405, 0.6454666256904602, -0.4505181908607483, 0.947024941444397, -0.026739919558167458, 0.7647632956504822, -0.7976246476173401, -0.8713353872299194, 0.9154821634292603, 0.6280654668807983, -0.829246997833252, 0.5202390551567078, -0.690692126750946, -0.17860251665115356, 0.3166349530220032, -0.19822810590267181, 0.6643558740615845, -0.8124303221702576, -0.11802181601524353, 0.4329831898212433, 0.7350243926048279, 0.148746058344841, 0.91313636302948, 0.24449792504310608, 0.06147724390029907, -0.9618561267852783, -0.44380852580070496, 0.08397101610898972, -0.20945118367671967, -0.6149049997329712, 0.5172547698020935, 0.5868076086044312, -0.5209912657737732, -0.7348150610923767, 0.17246147990226746, -0.28749504685401917, -0.7039656043052673, -0.6656569242477417, -0.5949450135231018, -0.3720802664756775, 0.4551876187324524, -0.11110706627368927, -0.6375011801719666, -0.3736442029476166, -0.6242378950119019, 0.10453041642904282, 0.28563806414604187, -0.9238154292106628, 0.29055944085121155, -0.6165680289268494, -0.549698531627655, 0.13477033376693726, -0.5828582644462585, 0.17125707864761353, 0.06287270039319992, -0.08770732581615448, -0.7102957963943481, -0.0064293802715837955, -0.3249312937259674, -0.537670373916626, -0.7534066438674927, 0.8852436542510986, 0.12730926275253296, 0.772273063659668, -0.7025308012962341, 0.5184423923492432, -0.6243094801902771, 0.26634106040000916, -0.5788692831993103, -0.9993800520896912, 0.7658507823944092, 0.23479518294334412, 0.45249855518341064, -0.1687346249818802, -0.5966599583625793, -0.09697599709033966, 0.18335552513599396, -0.5666142106056213, 0.6229653358459473, -0.7336575984954834, -0.7159541845321655, 0.18064238131046295, -0.07674069702625275, -0.09359143674373627, -0.7039107084274292, 0.7748804092407227, 0.23852650821208954, 0.8854015469551086, 0.9957452416419983, -0.7134812474250793, 0.46960997581481934, 0.03698887303471565, 0.8365986347198486, 0.39702144265174866, 0.1038462370634079, -0.1891268938779831, -0.5922609567642212, 0.8255602717399597, 0.9078009724617004, -0.06502451002597809, -0.8813543915748596, 0.11873454600572586, 0.5855554342269897, 0.023274701088666916, 0.7173944711685181, 0.076112300157547, -0.7648752331733704, -0.9525889158248901, 0.7810152769088745, -0.672009289264679, 0.009482339024543762, 0.30366599559783936, -0.19118456542491913, 0.3678555190563202, 0.5772495865821838, 0.50096195936203, -0.2722611427307129, 0.23635748028755188, -0.10724243521690369, -0.5752168893814087, 0.7540026903152466, 0.46701374650001526, 0.8027909398078918, 0.4045976996421814, 0.8215939402580261, 0.16166657209396362, -0.5599638223648071, -0.14589565992355347, 0.1404075026512146, 0.9936667084693909, -0.43518945574760437, -0.8242644667625427, -0.2085656076669693, -0.29637646675109863, 0.37560200691223145, 0.40667587518692017, 0.5604079365730286, -0.3159935772418976, 0.651746392250061, -0.41229408979415894, -0.9093506336212158, 0.1917244791984558, -0.7837234139442444, 0.1869119107723236, -0.40862375497817993, 0.756069540977478, 0.4949735403060913, 0.044690925627946854, -0.12910595536231995, -0.6189352869987488, -0.8964194059371948, -0.8849254250526428, 0.37105828523635864, 0.40357160568237305, 0.42200231552124023, -0.7720958590507507, -0.1815551519393921, -0.8199229836463928, 0.3027426302433014, 0.7504236102104187, -0.38505837321281433, 0.5511327385902405, -0.11241068691015244, 0.44329217076301575, -0.15374654531478882, -0.9957024455070496, 0.26128479838371277, -0.9147802591323853, 0.9728649258613586, 0.9615041613578796, -0.3872533142566681, -0.7138630747795105, -0.15077859163284302, -0.8076441884040833, -0.5397816896438599, 0.48712873458862305, 0.16205066442489624, -0.4764312207698822, 0.9671314358711243, -0.8770319819450378, -0.041472483426332474, -0.2710774838924408, -0.18172436952590942, -0.753595769405365, -0.9218834042549133, -0.7571521401405334, 0.058292873203754425, -0.07460052520036697, 0.5699692368507385, 0.7044429779052734, -0.3874502182006836, -0.10749902576208115, 0.7339829802513123, 0.8163142800331116, 0.4682532548904419, -0.5524977445602417, 0.11964698880910873, 0.8927803635597229, 0.4768544137477875, 0.7684009075164795, 0.018061568960547447, 0.34134772419929504, -0.5530004501342773, -0.6091530323028564, 0.41017475724220276, -0.12244360148906708, 0.7360026240348816, -0.3617960512638092, -0.44909679889678955, 0.9626776576042175, -0.6805574893951416, 0.1599934995174408, -0.4583069086074829, -0.9635312557220459, 0.09661484509706497, -0.7371635437011719, -0.8149857521057129, 0.25691843032836914, 0.2806738317012787, 0.36530667543411255, -0.9707902669906616, 0.8416354060173035, -0.8971071839332581, 0.36125504970550537, 0.032953012734651566, 0.6347550749778748, -0.0469597689807415, -0.021461011841893196, -0.9198693037033081, -0.2760912775993347, -0.898854672908783, -0.23750105500221252, 0.8260024189949036, -0.16391611099243164, -0.01416688784956932, -0.5062071681022644, 0.9598501324653625, 0.5492652654647827, -0.07059477269649506, 0.726370632648468, 0.9339356422424316, 0.027686623856425285, -0.11741499602794647, -0.3129136562347412, -0.33346620202064514, 0.29903391003608704, 0.4129174053668976, -0.9201667904853821, 0.101406529545784, -0.2566932737827301, 0.043556809425354004, 0.2858894169330597, 0.7024403810501099, 0.15967176854610443, 0.1331229954957962, -0.9496448636054993, -0.020244520157575607, -0.602977454662323, 0.6819456219673157, -0.6355975270271301, -0.9098777174949646, -0.17257797718048096, -0.4487105906009674, -0.9052119851112366, -0.6490906476974487, -0.6532902717590332, -0.9106302857398987, -0.23014526069164276, 0.22683149576187134, -0.24537178874015808, 0.8415521383285522, 0.28167134523391724, 0.6374478936195374, 0.8395393490791321, -0.7628740072250366, -0.7410110235214233, 0.936626136302948, 0.570303738117218, -0.6117568016052246, 0.275570273399353, 0.22758029401302338, 0.20860448479652405, 0.8767651319503784, 0.22260317206382751, -0.7155086398124695, 0.04541560634970665, 0.2962275445461273, 0.842749297618866, -0.37409958243370056, -0.4368094503879547, 0.4496949017047882, -0.45632675290107727, 0.5799025297164917, 0.35911789536476135, -0.019003726541996002, 0.9753182530403137, -0.33706429600715637, -0.5866356492042542, -0.5535497665405273, 0.585508406162262, 0.2701318860054016, -0.950814425945282, 0.4207245707511902, -0.6242668628692627, 0.8867774605751038, 0.5448282361030579, 0.8793096542358398, -0.13488908112049103, 0.8396844863891602, 0.23373965919017792, 0.934885561466217, 0.366624116897583, 0.44206923246383667, 0.5018133521080017, -0.9011378288269043, -0.05799971520900726, 0.09976818412542343, 0.34445250034332275, 0.3068176805973053, 0.6869027614593506, -0.24872522056102753, -0.37875601649284363, 0.09964285045862198, 0.9299619197845459, 0.41601884365081787, 0.9615078568458557, 0.8409234881401062, -0.23633617162704468, -0.6706568598747253, 0.4404676854610443, -0.8609104156494141, -0.4499407708644867, 0.5836477279663086, 0.060449451208114624, 0.7373076677322388, 0.4695746898651123, -0.8604345917701721, 0.48169392347335815, -0.847545325756073, -0.600682258605957, -0.6103100180625916, -0.9786089062690735, -0.13148337602615356, 0.642423689365387, -0.8474906086921692, 0.9413211941719055, 0.6787509918212891, -0.7271820306777954, 0.3874543309211731, -0.9465344548225403, 0.4848112463951111, -0.05889641493558884, -0.30964088439941406, 0.416366308927536, 0.7155489325523376, 0.7853819727897644, -0.2972315549850464, -0.1276382952928543, 0.32867521047592163, -0.058913297951221466, 0.3231031000614166, -0.05448633432388306, 0.3813263177871704, 0.6304781436920166, -0.6733803749084473, 0.18572627007961273, 0.9548630714416504, 0.4074315130710602, -0.8372226357460022, 0.47373029589653015, 0.5217325687408447, -0.2500697672367096, -0.5384618639945984, 0.7316291332244873, 0.3875828981399536, -0.3005145192146301, -0.6682477593421936, 0.5898117423057556, 0.15382780134677887, 0.48896077275276184, 0.5973049402236938, -0.6388788819313049, -0.182855486869812, -0.18526174128055573, -0.6672967672348022, -0.8330830931663513, 0.6855241656303406, -0.5896159410476685, -0.7067009210586548, 0.7079295516014099, -0.6714805960655212, 0.9342101812362671, -0.4840071201324463, 0.762151837348938, 0.8924869894981384, 0.28912946581840515, -0.8156557083129883, -0.6424174308776855, -0.38985681533813477, -0.15458060801029205, -0.5083767771720886, 0.46183905005455017, -0.7520822286605835, -0.5796979069709778, 0.8937235474586487, -0.19085119664669037, -0.3510160446166992, 0.18168796598911285, -0.6094486117362976, 0.2657466530799866, -0.2814169228076935, -0.2681531012058258, -0.13073311746120453, 0.7715542316436768, -0.7960554957389832, -0.24166247248649597, 0.6253256797790527, 0.26907292008399963, -0.8567478060722351, -0.5172989368438721, 0.9528981447219849, -0.7803921699523926, -0.2067737728357315, 0.9487142562866211, 0.9332106113433838, -0.8944236636161804, 0.9915832281112671, 0.28447723388671875, -0.5148672461509705, 0.5404397249221802, 0.38439828157424927, 0.6134217977523804, -0.1980896145105362, -0.3662336766719818, -0.41445010900497437, -0.6439024806022644, 0.1265871673822403, 0.015441552735865116, 0.866305410861969, -0.48265764117240906, 0.7617244124412537, 0.2522106468677521, 0.28958240151405334, -0.5367124676704407, -0.2215990573167801, 0.7814067006111145, 0.7666220664978027, -0.15985587239265442, 0.906008243560791, -0.738726019859314, -0.4179680347442627, -0.4530433118343353, 0.5516029000282288, 0.7827101349830627, 0.8714457154273987, 0.4117547869682312, 0.33647313714027405, 0.3209569454193115, -0.47557032108306885, -0.3128688335418701, 0.6759046912193298, 0.44763123989105225, 0.985258162021637, 0.728029727935791, 0.10095059871673584, 0.9853743314743042, -0.9388847351074219, 0.033304039388895035, 0.31346267461776733, -0.9673069715499878, -0.3739092946052551, 0.8073915243148804, 0.0176569651812315, -0.5964166522026062, -0.13008324801921844, 0.3937235176563263, 0.16419512033462524, 0.7844113707542419, 0.6681246161460876, -0.03369148448109627, -0.4084915518760681, 0.22786706686019897, 0.43885621428489685, -0.667117178440094, -0.9670187830924988, -0.9075132012367249, -0.6084381937980652, -0.14089101552963257, 0.7193740606307983, -0.5517829656600952, 0.14152200520038605, 0.5151482820510864, 0.4234888553619385, -0.10980945080518723, -0.821228563785553, -0.0805283784866333, -0.4278050661087036, 0.14559303224086761, 0.26482629776000977, 0.3605786859989166, -0.40835657715797424, -0.432138055562973, 0.7806719541549683, -0.6294068694114685, 0.699724018573761, -0.6132603883743286, -0.018065327778458595, 0.4930885136127472, -0.8930197954177856, 0.36594367027282715, -0.5669399499893188, -0.7633500099182129, 0.35054832696914673, -0.7415270209312439, 0.7121443748474121, 0.36557596921920776, 0.39726367592811584, 0.48745283484458923, 0.7440831065177917, 0.680933952331543, -0.04028364643454552, -0.07256215065717697, 0.2525331676006317, -0.9386082291603088, -0.7060707807540894, 0.18018700182437897, 0.5428699851036072, -0.9382469058036804, 0.5207511782646179, -0.35962700843811035, 0.7719305753707886, -0.8576376438140869, -0.10157723724842072, 0.9819525480270386, -0.7620378136634827, -0.009094206616282463, -0.6609888672828674, -0.20469386875629425, -0.43081027269363403, 0.17160490155220032, -0.026223039254546165, 0.6217450499534607, 0.08625905215740204, 0.5488534569740295, 0.3120492994785309, -0.3122822046279907, 0.6771495342254639, 0.491229772567749, -0.21221859753131866, -0.5723477005958557, -0.5885399580001831, -0.2963047921657562, 0.20377567410469055, -0.8970420360565186, -0.3666038513183594, 0.7868129014968872, 0.06352659314870834, 0.24422410130500793, 0.8074662685394287, -0.13595165312290192, 0.49488916993141174, -0.0690537691116333, -0.8227996826171875, -0.3160167634487152, 0.1400013566017151, -0.18113723397254944, -0.6671785116195679, -0.34887707233428955, -0.8156008720397949, 0.7572903037071228, 0.8078358769416809, -0.17740055918693542, -0.04931839182972908, 0.49112027883529663, 0.5403138995170593, 0.9955577850341797, -0.2770337760448456, 0.5350802540779114, -0.9333652853965759, -0.8899796009063721, 0.535513162612915, 0.901423990726471, 0.5832875967025757, -0.7008838653564453, 0.5297585725784302, -0.7516913414001465, -0.08322674036026001, 0.6407684087753296, 0.2073907107114792, -0.1927378624677658, 0.6165637373924255, -0.10351332277059555, 0.5497496128082275, 0.09406809508800507, -0.9321264028549194, 0.4173929989337921, 0.9835642576217651, -0.9160168170928955, 0.19654132425785065, 0.4643799960613251, -0.4841598868370056, 0.32472261786460876, 0.988690972328186, 0.6077967286109924, 0.5899686217308044, 0.5583091974258423, -0.0688202828168869, -0.13289563357830048, -0.3098340630531311, -0.1359744518995285, -0.8669927716255188, 0.8544498085975647, 0.07966842502355576, -0.41145703196525574, -0.5601058602333069, -0.455265611410141, 0.10733521729707718, -0.3990866243839264, -0.2592049241065979, -0.7646205425262451, 0.18609505891799927, 0.6412702202796936, 0.47999438643455505, -0.9143418669700623, -0.02140614576637745, -0.6602085828781128, -0.16816891729831696, -0.8594697713851929, -0.4903281331062317, 0.2899754047393799, 0.746230959892273, -0.46836042404174805, -0.8517063856124878, -0.6112226247787476, 0.6203460097312927, -0.054462410509586334, 0.49659931659698486, 0.010244414210319519, -0.7073940634727478, 0.012956530787050724, 0.29466333985328674, -0.7432987093925476, -0.6803845167160034, -0.818530797958374, -0.9794593453407288, 0.7657425999641418, -0.3351798951625824, 0.32294660806655884, -0.23928749561309814, 0.27560266852378845, -0.7228279709815979, 0.08375932276248932, -0.6449354290962219, -0.563320517539978, 0.5950681567192078, -0.210435688495636, -0.42954978346824646, -0.2659987807273865, 0.815394401550293, -0.9285475015640259, 0.404585599899292, 0.00860937312245369, 0.5483237504959106, 0.17782114446163177, -0.09063911437988281, 0.9336405992507935, 0.9822983741760254, -0.14385567605495453, 0.30266180634498596, -0.08892221748828888, -0.1280433088541031, -0.03790484368801117, 0.7744344472885132, 0.9408011436462402, 0.39551833271980286, 0.9661216735839844, 0.7346578240394592, -0.7506815195083618, 0.5107940435409546, -0.8246693015098572, -0.862833559513092, 0.8863470554351807, 0.5837533473968506, 0.4170691967010498, -0.22500930726528168, 0.5941270589828491, -0.2210659384727478, -0.7227950692176819, -0.2876052260398865, -0.15081435441970825, -0.6866349577903748, 0.2708689868450165, 0.1809781789779663, 0.17816348373889923, 0.3188292384147644, 0.5728427767753601, 0.21428222954273224, 0.9448055028915405, 0.0336945615708828, -0.24406175315380096, -0.010156461037695408, 0.49474596977233887, -0.7116744518280029, 0.5402718186378479, 0.9742192625999451, 0.6010505557060242, 0.6346650719642639, 0.05517421290278435, -0.5157705545425415, -0.6024306416511536, 0.9257156252861023, -0.6296404004096985, 0.049027182161808014, -0.9556583762168884, 0.4890058934688568, -0.1206418052315712, -0.9140269160270691, -0.3839874565601349, -0.12487488240003586, 0.8307963609695435, -0.499593049287796, 0.6212809681892395, 0.7541810870170593, -0.17979967594146729, -0.952210009098053, 0.05047082155942917, -0.11933480948209763, 0.1970876008272171, 0.10276222974061966, 0.5478630661964417, -0.01069966983050108, 0.8718035817146301, -0.6843397617340088, -0.33477193117141724, -0.5770028233528137, 0.1459302008152008, 0.7070371508598328, 0.12810258567333221, -0.16732333600521088, 0.311280757188797, 0.656988263130188, -0.5195597410202026, -0.5537016987800598, 0.7351791262626648, 0.4231766164302826, 0.1089736819267273, -0.5251274704933167, 0.9954275488853455, -0.3238571584224701, -0.43149253726005554, -0.05388922616839409, 0.7885575294494629, 0.8329197764396667, -0.09599298983812332, 0.0030225494410842657, 0.40432485938072205, 0.6595158576965332, -0.2841591536998749, -0.9565750956535339, -0.043599892407655716, -0.18455421924591064, -0.6523208618164062, -0.49915245175361633, -0.5252923965454102, -0.5405254364013672, -0.00429941201582551, 0.4879247844219208, 0.18659250438213348, -0.5577841997146606, 0.9066495299339294, -0.4399828612804413, -0.17135606706142426, 0.08064565807580948, -0.5431690216064453, 0.34897580742836, 0.04209683835506439, 0.5617942214012146, 0.5690396428108215, -0.35997864603996277, -0.9664946794509888, -0.15458890795707703, 0.2771995961666107, 0.5755389332771301, 0.9206271171569824, 0.5791344046592712, 0.18167419731616974, 0.20658591389656067, -0.7994986772537231, 0.9621843695640564, -0.19556471705436707, 0.8063144087791443, 0.041520096361637115, -0.622459888458252, -0.48976585268974304, -0.670110821723938, -0.5529757738113403, 0.7065495848655701, 0.5593369007110596, -0.016030391678214073, 0.7056668996810913, 0.10101408511400223, 0.16549496352672577, 0.8131126761436462, 0.5151362419128418, -0.48836401104927063, -0.901605486869812, 0.14216753840446472, 0.04259014502167702, -0.6193347573280334, 0.08800532668828964, 0.2792530357837677, -0.7158359885215759, 0.42266348004341125, -0.9769202470779419, -0.052089400589466095, 0.8048706650733948, 0.21387454867362976, -0.11771431565284729, -0.5073291659355164, 0.1895572990179062, -0.7676933407783508, 0.48948729038238525, 0.7451670169830322, 0.199558287858963, -0.07860162109136581, 0.7136094570159912, 0.2828857898712158, 0.023813333362340927, -0.32652541995048523, -0.6720210313796997, 0.5154012441635132, -0.9170271754264832, -0.42476609349250793, -0.9562487006187439, -0.7933778166770935, 0.026594188064336777, 0.9809930324554443, -0.8977733254432678, -0.03957367315888405, -0.7294276356697083, -0.23564046621322632, 0.11493874341249466, 0.5620197057723999, 0.05437980964779854, -0.6032487154006958, 0.7241050004959106, 0.4873175024986267, -0.5103596448898315, -0.12230003625154495, 0.8097972869873047, -0.04888823255896568, 0.11987105011940002, 0.10197244584560394, 0.05613691732287407, 0.32401394844055176, -0.12196453660726547, -0.4164193868637085, 0.9764540195465088, -0.255728542804718, 0.2363148033618927, -0.9924044609069824, 0.638373076915741, -0.626672625541687, -0.41980186104774475, 0.8684214949607849, -0.9758015871047974, -0.21060936152935028, -0.6196911334991455, 0.8581393957138062, 0.22425968945026398, 0.14012673497200012, 0.2321397364139557, -0.06412404775619507, 0.5877690315246582, -0.34443387389183044, -0.23516160249710083, -0.18103167414665222, 0.8427860140800476, -0.5886706113815308, 0.055043358355760574, -0.5503469109535217, -0.03977162390947342, 0.3350139260292053, -0.36180776357650757, 0.11820222437381744, -0.34024757146835327, 0.33527135848999023, -0.1027841567993164, -0.6393711566925049, -0.22279959917068481, 0.8575400114059448, -0.40435662865638733, -0.48532634973526, 0.05676938220858574, 0.80987149477005, 0.821452260017395, -0.6153513789176941, 0.274720162153244, 0.8635275363922119, -0.5655516982078552, -0.14436405897140503, 0.09241130948066711, -0.9568581581115723, -0.10048750787973404, 0.5073019862174988, 0.7836120128631592, 0.7999082803726196, -0.8723143339157104, 0.6405623555183411, 0.4872404932975769, -0.9067791104316711, -0.9887229800224304, -0.3533625304698944, 0.4075048267841339, -0.2521039843559265, -0.05356895551085472, 0.029390020295977592, 0.33656173944473267, 0.7538318634033203, -0.2802666127681732, -0.5361713767051697, -0.280532568693161, 0.8050727844238281, 0.12931905686855316, 0.31087762117385864, 0.41155481338500977, -0.6396844983100891, -0.17975233495235443, 0.308535099029541, -0.4838031828403473, -0.5828642249107361, -0.467772513628006, 0.19135072827339172, 0.2795940935611725, -0.17904998362064362, -0.23392753303050995, -0.0737471953034401, 0.9332427978515625, 0.9038668870925903, 0.7894410490989685, 0.9901598691940308, 0.6620790362358093], "expected": [0, 0.011036815121769905, 0.021888837218284607, 0.0014954269863665104, 0.01460809912532568, 0.06251969933509827, 0.033972419798374176, 0.0033537899143993855, 0.015614628791809082, 0.003381316317245364, 0.06997765600681305, 0, 0.052970074117183685, 0, 0, 0, 0.03286781162023544, 0.024248920381069183, 0, 0.0018527819775044918, 0.03538356348872185, 0.08045648038387299, 0, 0.07014474272727966, 0, 0.0022464909125119448, 0.04172775521874428, 0, 0, 0, 0, 0, 0.06900789588689804, 0, 0, 0.06709941476583481, 0, 0.010083349421620369, 0, 0, 0, 0.008260337635874748, 0, 0, 0.012922114692628384, 0.036427758634090424, 0.04200649634003639, 0.05973545461893082, 0.04648979753255844, 0.010074591264128685, 0.05824693664908409, 0, 0.027271945029497147, 0.010676898993551731, 0.026907386258244514, 0.02090403437614441, 0.007223071064800024, 0, 0.003618542803451419, 0.015714626759290695, 0, 0, 0, 0.03700849413871765, 0, 0, 0, 0.012186048552393913, 0, 0, 0.014228937216103077, 0, 0, 0, 0, 0, 0, 0.040844276547431946, 0, 0, 0, 0.026660019531846046, 0.032796744257211685, 0.011210045777261257, 0.025535130873322487, 0.0719643086194992, 0, 0.022089960053563118, 0.01836172491312027, 0.0015425073215737939, 0, 0, 0.011555465869605541, 0.03557160496711731, 0.009817929938435555, 0.009354667738080025, 0, 0.014940482564270496, 0, 0, 0, 0.047112785279750824, 0.0006776592927053571, 0, 0, 0, 0.021698161959648132, 0, 0.0025844532065093517, 0, 0.03406662493944168, 0.01560599822551012, 0, 0.028595440089702606, 0.06527752429246902, 0, 0.01905202493071556, 0, 0.02497009001672268, 0.056273914873600006, 0, 0.06007915735244751, 0, 0, 0, 0.0389833077788353, 0, 0, 0, 0, 0.04290034994482994, 0.00848811399191618, 0, 0.020665990188717842, 0, 0, 0, 0.039066098630428314, 0.007784946355968714, 0, 0, 0.06701897829771042, 0, 0, 0, 0.02643228881061077, 0, 0.006397629156708717, 0.08810169249773026, 0, 0.0031049191020429134, 0.07014922052621841, 0.035642631351947784, 0, 0.052642904222011566, 0, 0.010805082507431507, 0.009689714759588242, 0, 0, 0.02052627131342888, 0.03248463571071625, 0, 0.0010104092070832849, 0.04846988990902901, 0.019606705754995346, 0.06356089562177658, 0, 0, 0.0022012554109096527, 0, 0.007626618258655071, 0, 0.02853955514729023, 0, 0, 0.07432364672422409, 0, 0.007416388485580683, 0, 0, 0, 0.008939111605286598, 0.010040417313575745, 0.026016049087047577, 0, 0.06807571649551392, 0, 0, 0, 0.037695132195949554, 0.05699719116091728, 0.03158824145793915, 0, 0.03216991201043129, 0, 0, 0.015268268994987011, 0.005798456259071827, 0.016417425125837326, 0.010163716971874237, 0.013575981371104717, 0, 0, 0.024987220764160156, 0.028732530772686005, 0, 0, 0, 0, 0, 0, 0, 0.03797965869307518, 0.010675023309886456, 0, 0.05340861901640892, 0, 0.024257831275463104, 0.020679516717791557, 0.060540929436683655, 0, 0, 0, 0.0028982411604374647, 0, 0.027103208005428314, 0.008435999974608421, 0, 0, 0.015564911998808384, 0.03575814887881279, 0, 0.01713242381811142, 0.024377454072237015, 0.02530362457036972, 0, 0.029892928898334503, 0.009768189862370491, 0.006583831273019314, 0, 0.04860817268490791, 0.03129833936691284, 0, 0.006416333373636007, 0, 0, 0, 0.016274699941277504, 0, 0.008967790752649307, 0.019858835265040398, 0, 0.02572360821068287, 0, 0.005710725672543049, 0.00812307558953762, 0, 0.0445987768471241, 0.04082489386200905, 0, 0.0040173763409256935, 0, 0.0041000014171004295, 0, 0, 0, 0.022917013615369797, 0, 0, 0, 0, 0, 0, 0.0042756544426083565, 0, 0, 0.01836036704480648, 0, 0.019836299121379852, 0, 0.06387787312269211, 0.012603525072336197, 0.03305308520793915, 0.03391335532069206, 0.019889503717422485, 0.023743268102407455, 0, 0.000430374318966642, 0, 0, 0.004689691588282585, 0.014510059729218483, 0.0007105547119863331, 0.01417835894972086, 0, 0, 0, 0.02901432290673256, 0, 0, 0, 0.04383231699466705, 0.0014564910670742393, 0.044599246233701706, 0, 0, 0, 0, 0.024506574496626854, 0.0018686563707888126, 0.013025927357375622, 0.06448805332183838, 0.0027099770959466696, 0, 0.018885193392634392, 0, 0.0013517754850909114, 0.012204430997371674, 0, 0, 0, 0, 0.04511888697743416, 0, 0.08336114138364792, 0, 0, 0, 0.021679019555449486, 0, 0.016424061730504036, 0.011400002054870129, 0.06708409637212753, 0, 0, 0, 0.006035777274519205, 0.003120979992672801, 0, 0, 0.021061446517705917, 0.00284859468229115, 0, 0.008425024338066578, 0.021919479593634605, 0.011022927239537239, 0.01741737127304077, 0, 0, 0.02617756836116314, 0, 0, 0, 0.07442028820514679, 0.011542935855686665, 0, 0.0006091035902500153, 0, 0.047831058502197266, 0.046480268239974976, 0.01114501804113388, 0, 0.026331666857004166, 0.014404690824449062, 0.003056697314605117, 0, 0, 0, 0.006029557436704636, 0, 0, 0, 0.014613157138228416, 0, 0.0040038954466581345, 0.04723165184259415, 0.026165707036852837, 0, 0, 0.02262660674750805, 0, 0.029087964445352554, 0.009198080748319626, 0, 0.04685567319393158, 0, 0.04327533021569252, 0.0959547683596611, 0.010516389273107052, 0.019006749615073204, 0.02511485293507576, 0.03327206149697304, 0, 0, 0.08217454701662064, 0, 0, 0, 0, 0, 0.015867305919528008, 0, 0.029926978051662445, 0.015485928393900394, 0.008024140261113644, 0, 0.058840591460466385, 0, 0.013167441822588444, 0, 0, 0.03558886796236038, 0, 0, 0.007384496740996838, 0, 0, 0.034224167466163635, 0, 0.005812547635287046, 0.009922109544277191, 0, 0, 0.016774911433458328, 0.0122136939316988, 0, 0, 0, 0.007968395948410034, 0, 0.02024674601852894, 0.016670674085617065, 0.04471644014120102, 0.021956805139780045, 0.0340757891535759, 0.04045141488313675, 0, 0, 0, 0.07082565128803253, 0, 0.01817254163324833, 0.02016407623887062, 0, 0, 0.0134302768856287, 0, 0.009759332053363323, 0.03914274275302887, 0.0638992190361023, 0.031546592712402344, 0.062232859432697296, 0.008411278016865253, 0, 0.05383366718888283, 0, 0.043729279190301895, 0, 0, 0.0032124645076692104, 0.01771359145641327, 0, 0, 5.6105051044141874e-05, 0.09712831676006317, 0, 0.015485863201320171, 0.014437377452850342, 0.009086983278393745, 0.006133296061307192, 0, 0.037182584404945374, 0, 0, 0, 0.07316041737794876, 0, 0, 0.00021727787679992616, 0, 0.05390588939189911, 0, 0, 0.039793938398361206, 0.06813984364271164, 0, 0.04145121946930885, 0, 0, 0, 0, 0.017147643491625786, 0.02291613630950451, 0.010927725583314896, 0.03567065671086311, 0, 0.043362535536289215, 0, 0.04619564861059189, 0.07433008402585983, 0, 0.04965873435139656, 0, 0.06108526512980461, 0.006534712854772806, 0, 0.04570955038070679, 0, 0, 0, 0, 0.0186665840446949, 0, 0, 0, 0, 0.05666704475879669, 0.03070800006389618, 0.04438023641705513, 0.033739712089300156, 0.006043597124516964, 0.02106230892241001, 0, 0.035233449190855026, 0.000201786620891653, 0.03289321810007095, 0.09577161073684692, 0.024300137534737587, 0, 0.04370315000414848, 0, 0.008417883887887001, 0, 0, 0.001176829682663083, 0.03461957722902298, 0, 0, 0, 0, 0.01909526064991951, 0, 0.0016103667439892888, 0, 0.04600884020328522, 0, 0, 0, 0.014689354225993156, 0, 0.006088079418987036, 0, 0.024935157969594002, 0.02078246884047985, 0, 0, 0.007928376086056232, 0, 0.020011167973279953, 0.07385358214378357, 0.024300774559378624, 0.034980036318302155, 0.05315091833472252, 0, 0.01157500222325325, 0, 0, 0, 0, 0, 0.03189808875322342, 0, 0.008112565614283085, 0.02463505044579506, 0.09543933719396591, 0, 0, 0, 0, 0, 0, 0, 0, 0, 0.00023300829343497753, 0, 0, 0.03198537603020668, 0, 0.0009722458198666573, 0.033449478447437286, 0.033174436539411545, 0, 0.03558763116598129, 0, 0, 0, 0, 0.024900875985622406, 0, 0, 0, 0.016209455206990242, 0, 0, 0.07092876732349396, 0, 0, 0.06036495044827461, 0.04110180586576462, 0, 0, 0, 0.04579723998904228, 0.0051870569586753845, 0.020229673013091087, 0, 0.017902957275509834, 0.05998796224594116, 0.03845754265785217, 0.010641721077263355, 0.0010276422835886478, 0, 0, 0, 0, 0.01881638914346695, 0, 0, 0.025301551446318626, 0.005147621035575867, 0, 0.03938068822026253, 0.0019074776209890842, 0, 0.03850461170077324, 0, 0, 0, 0.037985946983098984, 0, 0, 0.00343889812938869, 0.0010676922975108027, 0, 0, 0.030770214274525642, 0, 0, 0.004709218163043261, 0, 0.011547197587788105, 0.03605145961046219, 0, 0.02007799781858921, 0.04826103523373604, 0.12088146060705185, 0.05392450466752052, 0, 0, 0, 0, 0, 0.03766680881381035, 0.009061546996235847, 0, 0.009920472279191017, 0, 0, 0.04281875863671303, 0, 0.023373182862997055, 0, 0.002476043300703168, 0.026564262807369232, 0, 0.021332746371626854, 0, 0, 0.0225183367729187, 0, 0, 0.027692584320902824, 0, 0.05527879670262337, 0.02911180444061756, 0.04504347965121269, 0, 0.006107771303504705, 0.017646946012973785, 0, 0, 0.03784185275435448, 0, 0.02870515175163746, 0.06347627192735672, 0.021060215309262276, 0.0053105284459888935, 0, 0, 0.013722436502575874, 0, 0.015725120902061462, 0, 0, 0.020086297765374184, 0, 0.03521857038140297, 0, 0.004245596006512642, 0.006517646834254265, 0, 0.001327399630099535, 0, 0.009021226316690445, 0.01929708570241928, 0.03613702207803726, 0.01503333356231451, 0, 0.04530194774270058, 0, 0.047332536429166794, 0, 0.010628951713442802, 0.0075546251609921455, 0.0008177632698789239, 0, 0.013248384930193424, 0.01757299154996872, 0, 0, 0, 0.0200851708650589, 0.00395117187872529, 0.04080362245440483, 0, 0.019783783704042435, 0, 0.015157326124608517, 0, 0.01751461811363697, 0, 0, 0, 0, 0, 0, 0.06997082382440567, 0, 0.01282865833491087, 0, 0, 0, 0.008913775905966759, 0.014298337511718273, 0.028147634118795395, 0.017003318294882774, 0, 0.033268656581640244, 0, 0, 0, 0, 0.004152917768806219, 0, 0.009323080070316792, 0.014770726673305035, 0, 0, 0, 0.0019231647020205855, 0, 0, 0, 0, 0.06034684553742409, 0.007475234568119049, 0, 0.09330766648054123, 0, 0.039301950484514236, 0, 0.0030999251175671816, 0.04456913098692894, 0.009567777626216412, 0.004462774842977524, 0.011502483859658241, 0.044618573039770126, 0.060725316405296326, 0.0403708890080452, 0, 0.03230276331305504, 0.014351061545312405, 0, 0, 0, 0, 0.04584097862243652, 0, 0, 0.04079606384038925, 0, 0, 0, 0.009240965358912945, 0, 0.007827659137547016, 0, 0, 0.04302610084414482, 0, 0, 0.0035154996439814568, 0, 0.026457618921995163, 0.06174352765083313, 0, 0, 0, 0, 0, 0.019651368260383606, 0, 0.001424381393007934, 0.0012737016659229994, 0, 0.06532400101423264, 0.0335734561085701, 0.061389174312353134, 0, 0.01483371015638113, 0.03500448167324066, 0.011946283280849457, 0.0024989000521600246, 0, 0, 0, 0, 0.02839876338839531, 0.05892564356327057, 0, 0.054076455533504486, 0.02036909945309162, 0, 0, 0, 0.01866002380847931, 0, 0.025755558162927628, 0.06751864403486252, 0, 0, 0.007880831137299538, 0.0007442659698426723, 0.042042650282382965, 0.0003533351991791278, 0, 0.008897079154849052, 0, 0.03687211871147156, 0, 0.007071285508573055, 0.0585937425494194, 0, 0, 0.003099729772657156, 0, 0, 0.028538759797811508, 0, 0.032483428716659546, 0.000289917312329635, 0.05692566558718681, 0, 0.0035560510586947203, 0, 0, 0.06223902478814125, 0, 0, 0.03459812328219414, 0, 0.03043193742632866, 0.006241220980882645, 0, 0.03195791319012642, 0, 0.016928350552916527, 0.022498225793242455, 0.035399679094552994, 0.011090478859841824, 0.03770828619599342, 0.04153992608189583, 0, 0, 0.039551738649606705, 0.033400651067495346, 0, 0, 0, 0, 0.03405742719769478, 0.003647205885499716, 0.03285659849643707, 0, 0.07866372913122177, 0, 0, 0.030024906620383263, 0.037927985191345215, 0.06507934629917145, 0, 0.05283684283494949, 0, 0, 0.01968338154256344, 0.04482932388782501, 0.054965876042842865, 0, 0.022418847307562828, 0, 0, 0.007925152778625488, 0, 0.05602440983057022, 0.014362241141498089, 0, 0, 0.0005839464720338583, 0, 0, 0.014580503106117249, 0.04963155835866928, 0, 0, 0.11605600267648697, 0, 0.012344405055046082, 0.04927131533622742, 0.050998255610466, 0.02537154033780098, 0.037454765290021896, 0, 0.010485495440661907, 0.00013939326163381338, 0, 0.052972663193941116, 0.05280435457825661, 0, 0, 0.041649140417575836, 0.0206999983638525, 0, 0, 0.0075520724058151245, 0, 0.03368261083960533, 0.026355445384979248, 0, 0, 0, 0, 0.0022119353525340557, 0.033138420432806015, 0.022709814831614494, 0, 0, 0, 0.036782898008823395, 0.006728214677423239, 0.04153076559305191, 0, 0.03763410076498985, 0.0019158386858180165, 0.013537723571062088, 0.041633058339357376, 0.01644115149974823, 0, 0, 0, 0, 0.056596606969833374, 0, 0, 0.053893376141786575, 0, 0, 0.034124162048101425, 0, 0.02910853736102581, 0, 0, 0, 0.01015753298997879, 0, 0, 0.11098362505435944, 0.07615936547517776, 0.029395844787359238, 0, 0, 0.01426431443542242, 0.02750452794134617, 0, 0, 0.015808742493391037, 0.014652000740170479, 0, 0.06255766749382019, 0, 0, 0.009414365515112877, 0.047013066709041595, 0, 0.021565940231084824, 0, 0, 0, 0, 0, 0, 0, 0.005040304269641638, 0.07058903574943542, 0, 0.07318291068077087, 0.00887930765748024, 0.03291473910212517, 0, 0.005360701587051153, 0, 0, 0.05307602509856224, 0.018647508695721626, 0.05385919660329819, 0, 0, 0, 0, 0.009432803839445114, 0.0021361035760492086, 0, 0, 0, 0, 0.0532512404024601, 0.03755835443735123, 0, 0, 0.03769305348396301, 0, 0, 0.025523768737912178, 0, 0.007484862115234137, 0.055541060864925385, 0.07126906514167786, 0, 0.029160775244235992, 0.034906331449747086, 0, 0, 0.030810944736003876, 0, 0.058935023844242096, 0.034107424318790436, 0, 0.04760478436946869, 0, 0, 0.028337175026535988, 0, 0.005727937910705805, 0, 0, 0.024859972298145294, 0.011414280161261559, 0.0609050877392292, 0, 0.017947934567928314, 0.00039233453571796417, 0.010016605257987976, 0.011651868931949139, 0.018687855452299118, 0.0724036917090416, 0, 0, 0.02829233556985855, 0.005200403742492199, 0, 0.0011321944184601307, 0.048818256705999374, 0.01974424719810486, 0, 0.018345097079873085, 0.0026868260465562344, 0, 0, 0.016577016562223434, 0.007337835151702166, 6.04381384619046e-05, 0, 0, 0.009493348188698292, 0.05465775355696678, 0.01413668878376484, 0.07473435997962952, 0.07629993557929993, 0.009930599480867386, 0, 0, 0, 0.004811212886124849, 0, 0.005193777848035097, 0.04875430464744568, 0.028514314442873, 0.01739116758108139, 0.04506237059831619, 0, 0, 0, 0, 0.013566032983362675, 0.032099369913339615, 0.023200593888759613, 0.05864676088094711, 0.03927256166934967, 0.015229260548949242, 0.03528093546628952, 0.018141377717256546, 0, 0, 0, 0.006141404155641794, 0, 0, 0, 0, 0, 0, 0, 0, 0.0006796969682909548, 0, 0.038395956158638, 0.0421411506831646, 0, 0.01436623465269804, 0.05655546858906746, 0.01165819726884365, 0, 0, 0.000784733216278255, 0, 0.055999282747507095, 0, 0.023106101900339127, 0, 0.021514562889933586, 0.01377993356436491, 0.005229232832789421, 0, 0, 0, 0, 0.0476885549724102, 0.08209572732448578, 0.029707282781600952, 0.07685833424329758, 0, 0, 0, 0.021750662475824356, 0.019924208521842957, 0.01681075617671013, 0, 0, 0.03353755548596382, 0, 0.04019695147871971, 0.01551745180040598, 0.07488472014665604, 0.03332401439547539, 0.025856204330921173, 0, 0, 0.06293770670890808, 0, 0.04136858507990837, 0, 0, 0, 0.031358249485492706, 0, 0.027578284963965416, 0, 0.04631596431136131, 0.04163436219096184, 0, 0.03734759986400604, 0.04166105017066002, 0, 0.0242039542645216, 0.024471187964081764, 0.036416999995708466, 0, 0.041622012853622437, 0, 0.023589255288243294, 0.01806013472378254, 0, 0, 0, 0, 0, 0.024357208982110023, 0, 0, 0, 0, 0, 0, 0, 0, 0.05917433649301529, 0, 0.03025379776954651, 0.001201188308186829, 0, 0.009272059425711632, 0.0008644174668006599, 0, 0.026855094358325005, 0.030284693464636803, 0, 0, 0, 0.006410995963960886, 0, 0.02102877013385296, 0, 0.011152893304824829, 0.041127994656562805, 0.08278746902942657, 0, 0, 0.07061570882797241, 0, 0, 0, 0.043108075857162476, 0.012228562496602535, 0, 0, 0, 0, 0.018753396347165108, 0.07388468831777573, 0.0602133609354496, 0.03812219202518463, 0, 0, 0, 0, 0.004463890567421913, 0, 0.028905663639307022, 0.02223968133330345, 0.03347313404083252, 0, 0.016041042283177376, 0.06602060794830322, 0.013477318920195103, 0.03854171559214592, 0, 0, 0, 0, 0, 0.032525427639484406, 0.03536123037338257, 0.05902702733874321, 0, 0, 0.016070175915956497, 0, 0.03452831506729126, 0, 0.043476346880197525, 0.043295957148075104, 0.010283716022968292, 0, 0, 0, 0, 0.06737010180950165, 0.07473430782556534, 0, 0, 0, 0, 0.042541053146123886, 0, 0, 0.024436842650175095, 0, 0, 0, 0.014246265403926373, 0.012177937664091587, 0, 0, 0, 0, 0, 0.05177336186170578, 0, 0.029702624306082726, 0.004667722620069981, 0.0908762514591217, 0, 0.03263252228498459, 0.031435005366802216, 0.027652040123939514, 0, 0, 0.01647927612066269, 0.05568494275212288, 0.046307384967803955, 0.033242229372262955, 0, 0, 0, 0, 0, 0, 0, 0.015349630266427994, 0, 0.007858349941670895, 0.0024153750855475664, 0, 0, 0, 0, 0.03143593668937683, 0, 0, 0.09384797513484955, 0, 0, 0.029737822711467743, 0.015722310170531273, 0.017480991780757904, 0, 0, 0.053453922271728516, 0.048030152916908264, 0, 0, 0.006722137797623873, 0, 0.028782496228814125, 0.005250877700746059, 0, 0.01538660004734993, 0.003234239062294364, 0, 0, 0.0701305940747261, 0, 0, 0.00043193428427912295, 0.012197931297123432, 0.001996544888243079, 0.05493847280740738, 0.006008101161569357, 0, 0.006898585706949234, 0.03266366943717003, 0, 0.02642296627163887, 0.047388412058353424, 0.009283809922635555, 0, 0.019281523302197456, 0, 0.03129887208342552, 0, 0, 0, 0.02200731821358204, 0, 0, 0, 0, 0, 0.02602636069059372, 0.05288267880678177, 0, 0, 0.0043562049977481365, 0.017031354829669, 0, 0.03905162215232849, 0.06718438118696213, 0, 0.04296411573886871, 0, 0, 0, 0, 0, 0.03939933329820633, 0.039243921637535095, 0, 0.00915155466645956, 0, 0, 0, 0.0022854420822113752, 0, 0, 0, 0, 0, 0, 0.0711667612195015, 0.0017901017563417554, 0.07929510623216629, 0, 0, 0, 0, 0.00032294579432345927, 0, 0, 0.0007324052858166397, 0.033467426896095276, 0.04283503443002701, 0.010946333408355713, 0.01496498566120863, 0, 0, 0.03658735752105713, 0, 0.07304047793149948, 0.06824947148561478, 0.08303118497133255, 0, 0, 0, 0.051758699119091034, 0, 0, 0.03325663134455681, 0, 0, 0.022847386077046394, 0.025525633245706558, 0, 0, 0, 0, 0, 0.0069512417539954185, 0, 0.06669931858778, 0.048277586698532104, 0.0014329850673675537, 0.015103119425475597, 0.05286354944109917, 0.015366108156740665, 0.019643940031528473, 0.012702112086117268, 0, 0, 0, 0.007759991567581892, 0.0068666948936879635, 0, 0, 0, 0.002204618416726589, 0, 0.002132766880095005, 0, 0.06216145306825638, 0, 0.003747077425941825, 0, 0.007562388200312853, 0.0021793125197291374, 0.030535515397787094, 0, 0.01973508857190609, 0, 0, 0.021100154146552086, 0, 0, 0.021272825077176094, 0, 0, 0, 0.039214156568050385, 0, 0.03460730239748955, 0.03704317659139633, 0, 0, 0.007117078639566898, 0, 0.015612552873790264, 0.044319361448287964, 0, 0, 0, 0.01074573677033186, 0.0376969613134861, 0.04280918464064598, 0, 0.023929590359330177, 0, 0, 0, 0, 0, 0.0480148009955883, 0.023672938346862793, 0.001064449199475348, 0, 0.026834622025489807, 0]}, {"name": "random_2", "seed": 12345, "input": [-0.3183368742465973, 0.6296107769012451, 0.8947372436523438, -0.1931694746017456, -0.8558045029640198, -0.3635498881340027, 0.3330606520175934, -0.0009127322118729353, -0.4415189027786255, -0.20553983747959137, -0.9011950492858887, -0.19690625369548798, -0.051454074680805206, -0.9154067635536194, -0.8533447980880737, -0.3991907835006714, 0.5508458018302917, -0.640740156173706, -0.12947885692119598, 0.08253102749586105, -0.10326619446277618, 0.6961678862571716, 0.5400915741920471, -0.23441725969314575, 0.6410276293754578, -0.6052478551864624, -0.893371045589447, -0.6478652954101562, 0.6896412968635559, 0.5722765326499939, 0.44617894291877747, 0.5729770660400391, -0.024732481688261032, -0.029027825221419334, -0.9149407148361206, -0.4352535009384155, -0.18209101259708405, 0.008039561100304127, 0.36241188645362854, 0.6234875917434692, 0.12396713346242905, 0.7083165049552917, 0.2926255762577057, -0.5197498798370361, -0.5198801755905151, 0.8215973377227783, 0.776854395866394, -0.7730793356895447, 0.4796358644962311, 0.38443756103515625, 0.6854034066200256, 0.44984501600265503, -0.0794212743639946, -0.28300055861473083, 0.8260573148727417, 0.944051206111908, 0.21018186211585999, -0.014623211696743965, 0.7213794589042664, 0.0592721626162529, -0.9071263670921326, 0.027657276019454002, -0.29899272322654724, -0.38326606154441833, 0.6153026223182678, 0.2823857367038727, 0.8740328550338745, 0.5825690031051636, 0.9111562371253967, -0.7861953973770142, -0.13059470057487488, 0.48626217246055603, -0.47382089495658875, -0.10266216099262238, -0.45485958456993103, 0.8762693405151367, 0.7131709456443787, 0.3345414996147156, 0.27786824107170105, -0.4458189904689789, 0.1917119324207306, -0.18240571022033691, -0.178069606423378, -0.4760003685951233, -0.789939284324646, -0.8524547219276428, -0.5992426872253418, 0.5106507539749146, -0.7523159980773926, -0.2794915735721588, -0.9906702637672424, -0.7294586300849915, -0.23324984312057495, -0.09732092171907425, 0.6688763499259949, 0.7036535739898682, -0.14551208913326263, 0.5316340327262878, 0.8675311207771301, -0.8004764318466187, 0.03324119374155998, -0.619703471660614, -0.9954135417938232, -0.6210851669311523, -0.1530890166759491, 0.908362627029419, 0.9657415747642517, 0.3410819470882416, 0.1438227891921997, 0.37737616896629333, -0.3892081081867218, 0.28206580877304077, 0.07959119230508804, 0.502504825592041, -0.4004374146461487, 0.4945758879184723, -0.056511007249355316, -0.9100695252418518, 0.8925939202308655, -0.31301000714302063, -0.3910428583621979, -0.9085546731948853, 0.637662410736084, -0.5074040293693542, -0.3484252989292145, -0.11377738416194916, 0.2810547351837158, 0.1549513190984726, 0.4617089331150055, 0.6564831733703613, -0.2597185969352722, -0.6959093809127808, 0.175367534160614, -0.24189884960651398, 0.8364721536636353, 0.10554777830839157, -0.1509040892124176, -0.420941025018692, -0.48128312826156616, 0.5913680195808411, 0.8244404792785645, -0.9254533648490906, 0.08252403140068054, 0.5481400489807129, -0.23679612576961517, 0.8583166003227234, 0.23869788646697998, -0.5401756763458252, -0.8329771161079407, -0.6328399777412415, -0.8575014472007751, 0.046914197504520416, -0.213098406791687, 0.9263699054718018, 0.46004346013069153, -0.8257215023040771, 0.90177983045578, 0.5021783709526062, -0.6250165104866028, -0.3241748809814453, 0.963196873664856, -0.2706714868545532, 0.8795853853225708, -0.2398303598165512, 0.6210970878601074, 0.8151544332504272, 0.4781966209411621, -0.5801888704299927, -0.4042688012123108, 0.44322338700294495, 0.7116829752922058, 0.06100963428616524, 0.05109748989343643, -0.3271823525428772, -0.9378932118415833, -0.7481444478034973, -0.7479757070541382, -0.9192497730255127, -0.1423378884792328, 0.7015901803970337, -0.2105831652879715, -0.21304211020469666, -0.22898469865322113, 0.5619941353797913, -0.046807028353214264, -0.9265525937080383, -0.7474644184112549, 0.04483475536108017, 0.7026411890983582, -0.8033322691917419, -0.21512730419635773, 0.30015048384666443, 0.5615687370300293, 0.249816432595253, -0.9306669235229492, 0.7209872007369995, 0.07681585103273392, 0.26779910922050476, -0.8785415291786194, -0.29105326533317566, -0.30382245779037476, 0.8604118824005127, 0.6497284770011902, -0.9761252999305725, -0.8233627676963806, -0.3131999373435974, 0.4177839756011963, 0.1792987734079361, -0.719253420829773, -0.015257740393280983, 0.16265496611595154, 0.6241388916969299, 0.08476952463388443, -0.9194564819335938, 0.5226783156394958, 0.4910043776035309, 0.860429584980011, 0.43848487734794617, 0.5783716440200806, 0.025994084775447845, -0.6255868673324585, 0.0906740352511406, -0.18228241801261902, 0.39563921093940735, 0.6598902940750122, 0.8176060914993286, 0.7798943519592285, -0.5794271230697632, 0.7437414526939392, 0.5446058511734009, 0.7602629661560059, -0.2083449810743332, -0.7059572339057922, -0.4903176426887512, -0.7110986709594727, 0.5442428588867188, -0.3449629545211792, -0.4717871844768524, 0.3053675591945648, -0.053640805184841156, 0.975128173828125, -0.29689478874206543, 0.2526451349258423, -0.1815425455570221, -0.2535625994205475, 0.7109499573707581, 0.9589420557022095, -0.7497143149375916, 0.013085017912089825, 0.2094808667898178, 0.3966950476169586, -0.3136955797672272, -0.9715915322303772, -0.07020578533411026, 0.475486695766449, 0.6196772456169128, -0.8908975124359131, -0.16963401436805725, -0.2147267758846283, -0.35950496792793274, 0.7271965146064758, 0.4924340844154358, -0.13813339173793793, 0.1848040223121643, 0.06054585054516792, 0.49700674414634705, -0.5302436351776123, -0.587087869644165, 0.03690541535615921, -0.9819714426994324, -0.503025233745575, 0.13870903849601746, 0.28471365571022034, 0.24788333475589752, -0.9100615382194519, -0.6952939629554749, -0.3717426359653473, -0.4588179290294647, -0.8103667497634888, -0.40180233120918274, -0.700710117816925, 0.40896520018577576, 0.7232057452201843, 0.5860955119132996, 0.38275769352912903, -0.6348923444747925, -0.09191428124904633, -0.3980269134044647, -0.549355149269104, -0.7917630672454834, -0.1502821296453476, -0.821628212928772, 0.4719921946525574, 0.20244435966014862, -0.6296452879905701, 0.5396064519882202, 0.20416328310966492, 0.41195958852767944, -0.24696193635463715, 0.0841004028916359, -0.6432946920394897, -0.9754124283790588, 0.3644638955593109, 0.5464584827423096, -0.4662540555000305, -0.6598048806190491, 0.45403826236724854, -0.9506794214248657, 0.9158908724784851, -0.06806166470050812, 0.6312987804412842, 0.7183915972709656, 0.8994801044464111, -0.8271529674530029, -0.15725496411323547, 0.9863672256469727, 0.28165683150291443, -0.5082961916923523, 0.3953710198402405, -0.4818284809589386, 0.9574640393257141, 0.14488105475902557, -0.13773158192634583, -0.8762640953063965, -0.9403692483901978, 0.21330080926418304, -0.4414442181587219, -0.4058043956756592, -0.6646190881729126, -0.704010009765625, -0.3427584171295166, -0.9781125783920288, 0.06821514666080475, 0.9467810392379761, 0.7184300422668457, 0.3258993923664093, -0.3783530294895172, -0.7698022127151489, -0.1849149763584137, -0.25523799657821655, 0.22649025917053223, -0.8968947529792786, -0.46072953939437866, -0.287896990776062, -0.20854772627353668, -0.6104041934013367, 0.8592718243598938, 0.9654403924942017, 0.21806323528289795, 0.6735509037971497, 0.9776027202606201, 0.3059098720550537, 0.878744900226593, -0.5121062994003296, 0.22842563688755035, 0.6723372340202332, 0.9081090688705444, -0.14060065150260925, 0.3061869442462921, 0.8405542373657227, -0.39819279313087463, -0.788581132888794, -0.6006927490234375, 0.6003906726837158, -0.5263810753822327, -0.000239167595282197, -0.5871938467025757, -0.8023754358291626, 0.09349848330020905, 0.4447804391384125, -0.2797398865222931, 0.9955106377601624, -0.9466342329978943, -0.8762098550796509, 0.14306241273880005, 0.33472806215286255, -0.6926307082176208, -0.1423683911561966, -0.29061615467071533, -0.3091811239719391, 0.749596118927002, 0.15415678918361664, 0.49965155124664307, 0.16951125860214233, 0.2164335548877716, -0.7736289501190186, 0.08620508015155792, 0.3463321924209595, -0.0699152797460556, 0.5733307600021362, -0.13365274667739868, -0.6144834756851196, 0.43659570813179016, 0.44898316264152527, 0.29596036672592163, 0.9810386300086975, -0.2810453176498413, -0.3538702428340912, 0.9327786564826965, 0.7392788529396057, -0.7684152722358704, 0.6539776921272278, 0.23171119391918182, 0.03944511339068413, 0.17658177018165588, 0.7702190279960632, -0.26175591349601746, 0.09480943530797958, 0.025876449421048164, -0.48263785243034363, 0.5391431450843811, 0.7876225709915161, -0.7794694304466248, 0.1964314728975296, -0.269703209400177, -0.2221623808145523, -0.7246513962745667, 0.6752753853797913, 0.9358370304107666, -0.48080989718437195, -0.9111315011978149, 0.617554783821106, -0.6184656620025635, 0.47169366478919983, 0.003650652477517724, -0.5833746194839478, 0.23662227392196655, 0.5150407552719116, 0.7670720219612122, 0.5721125602722168, 0.9632082581520081, -0.7397688031196594, 0.7011958956718445, -0.3282802700996399, -0.2472008764743805, 0.9519994854927063, 0.7733433842658997, -0.4296451508998871, -0.391156941652298, -0.008472062647342682, -0.7542837858200073, 0.12744460999965668, -0.18144506216049194, 0.9069458842277527, -0.5845586061477661, 0.12427837401628494, -0.7736285328865051, 0.13091407716274261, -0.8513477444648743, 0.17111653089523315, 0.9791795015335083, 0.08638406544923782, -0.5350723266601562, -0.8722083568572998, 0.2728092074394226, -0.830897867679596, -0.3935732841491699, 0.8145511746406555, -0.24698637425899506, 0.9229179620742798, 0.6928142309188843, -0.17312292754650116, 0.8396095037460327, 0.4746287763118744, -0.47302913665771484, -0.762620747089386, 0.8255811929702759, 0.9328944087028503, -0.47465279698371887, -0.8451084494590759, -0.5191503167152405, 0.6970296502113342, 0.7186089754104614, 0.2502608299255371, 0.7324751615524292, 0.18828633427619934, -0.11461823433637619, 0.9722954034805298, -0.7975445985794067, 0.9800605177879333, -0.19736087322235107, 0.49551182985305786, 0.6681512594223022, -0.054138097912073135, -0.1537911593914032, -0.5738847255706787, -0.39556318521499634, 0.34517499804496765, 0.342586487531662, 0.3144705295562744, -0.3003475069999695, -0.6974561214447021, -0.5213286876678467, -0.050877735018730164, -0.114004947245121, 0.03481137752532959, 0.30838075280189514, 0.6711105704307556, -0.47016263008117676, -0.11978376656770706, -0.35328179597854614, 0.7788524031639099, 0.1851474940776825, 0.6009280681610107, -0.2893598675727844, -0.18212059140205383, 0.8708334565162659, -0.8959111571311951, -0.7664951086044312, -0.9830300211906433, -0.4024733901023865, -0.714377760887146, -0.5623615980148315, 0.13703711330890656, -0.8448346853256226, -0.24132110178470612, 0.8993921875953674, 0.22955596446990967, 0.04438968747854233, 0.1169627234339714, 0.052921999245882034, 0.8722715973854065, -0.4672488570213318, -0.4424104392528534, -0.6831877827644348, -0.6689011454582214, -0.7631258368492126, -0.637483537197113, 0.8529912233352661, 0.677236795425415, 0.3280025124549866, -0.4604461193084717, 0.6363785862922668, 0.4032832384109497, -0.9306880831718445, -0.9144574403762817, 0.19368989765644073, 0.3183395564556122, 0.7642332315444946, -0.8752645254135132, -0.06615892052650452, 0.16785138845443726, -0.39565521478652954, -0.3352035880088806, 0.19692428410053253, 0.5194697380065918, 0.20644532144069672, -0.9673268795013428, 0.23280030488967896, 0.49266767501831055, 0.6961668133735657, 0.7941322326660156, -0.25634410977363586, -0.7998822927474976, 0.7472357749938965, 0.20282906293869019, 0.8220212459564209, 0.9322794079780579, -0.1322864294052124, -0.7647825479507446, 0.8807394504547119, 0.28241869807243347, -0.8355523943901062, -0.661170244216919, -0.8976383209228516, -0.470365434885025, -0.23209242522716522, 0.8772172331809998, -0.036979470402002335, 0.5889888405799866, 0.08013639599084854, 0.028391214087605476, -0.460255891084671, -0.5751175284385681, -0.691766619682312, 0.2773081958293915, 0.6994887590408325, -0.030707456171512604, 0.31053587794303894, 0.2646971642971039, -0.871588945388794, -0.7669602632522583, -0.41875869035720825, -0.976835310459137, 0.7536867260932922, 0.6532778739929199, -0.7897739410400391, 0.19233660399913788, 0.36677107214927673, -0.18623748421669006, -0.15718406438827515, -0.7111567854881287, -0.3475753962993622, -0.5800093412399292, 0.07449157536029816, 0.3100316822528839, 0.011647270061075687, -0.6627433896064758, 0.8350300192832947, -0.6995174288749695, 0.48632970452308655, 0.49007168412208557, -0.04833965376019478, 0.5655463337898254, 0.10725730657577515, 0.5927221179008484, 0.17874865233898163, 0.5867848992347717, 0.7631651163101196, 0.7661315202713013, -0.9079799652099609, -0.267108291387558, -0.18528547883033752, 0.3706050217151642, -0.22328370809555054, -0.8716737627983093, -0.45857128500938416, -0.9813028573989868, 0.4510153532028198, 0.15327906608581543, -0.5750478506088257, 0.354678750038147, 0.6891290545463562, 0.22832849621772766, 0.4482102692127228, -0.16104310750961304, -0.7048627734184265, 0.6285334825515747, -0.7264713644981384, -0.82091224193573, 0.40063607692718506, -0.012554595246911049, -0.7523095011711121, 0.7979633212089539, -0.27069106698036194, -0.5778154730796814, 0.8477561473846436, 0.485601544380188, 0.7137941122055054, -0.7457637190818787, 0.5403130650520325, -0.793167769908905, -0.5073462724685669, 0.19378000497817993, -0.5468277335166931, 0.33581358194351196, 0.014014272950589657, -0.6327999830245972, 0.6539953351020813, 0.1324421763420105, 0.5441809892654419, 0.21232129633426666, -0.5731087327003479, 0.3159656822681427, 0.7216857075691223, -0.6023285984992981, 0.13870537281036377, 0.09338457882404327, -0.9506412744522095, 0.7184671759605408, 0.901371419429779, 0.6465057730674744, -0.5142020583152771, -0.7545424699783325, 0.14846886694431305, -0.7965834140777588, 0.09740359336137772, 0.6045134663581848, -0.497213214635849, 0.2917954921722412, -0.4129490852355957, -0.9197192192077637, -0.4268381595611572, -0.21781808137893677, 0.044205911457538605, 0.3511359393596649, 0.7512468099594116, 0.48908355832099915, -0.172916442155838, -0.4508223235607147, -0.39639222621917725, 0.6469516158103943, -0.3381810486316681, -0.4963850975036621, 0.4449521005153656, -0.27367648482322693, -0.5289900898933411, -0.40571850538253784, 0.5481060743331909, -0.7328363656997681, -0.9829613566398621, -0.628463089466095, 0.7249220013618469, 0.6620240807533264, -0.26249662041664124, 0.5290932059288025, -0.23853656649589539, 0.40353408455848694, 0.513291597366333, 0.6333289742469788, 0.5525676012039185, -0.17798471450805664, -0.39442726969718933, 0.4536880552768707, -0.7511189579963684, -0.534426212310791, 0.8483187556266785, 0.28932881355285645, 0.7679400444030762, 0.2504591643810272, -0.7414725422859192, 0.7200045585632324, -0.4455967843532562, -0.15300501883029938, -0.8652423620223999, 0.597553551197052, -0.8146142363548279, 0.2705869674682617, 0.9689481258392334, 0.5235515236854553, -0.04177677258849144, 0.6340407729148865, -0.8746205568313599, -0.8940249681472778, 0.8152214288711548, 0.6078634262084961, 0.3824474513530731, -0.9254316091537476, 0.9878402948379517, 0.8307428359985352, 0.4587041139602661, -0.7306298613548279, -0.15980161726474762, -0.028108462691307068, 0.32590407133102417, -0.492351770401001, 0.6811568140983582, -0.6421356201171875, 0.34759119153022766, 0.5609599351882935, 0.020337164402008057, -0.8824494481086731, 0.4094397723674774, -0.36885911226272583, -0.5818504095077515, -0.3587353229522705, 0.3030782639980316, -0.20902861654758453, -0.7212536931037903, 0.07207681238651276, -0.2103320211172104, -0.16355322301387787, 0.8524646162986755, -0.545863151550293, -0.6624120473861694, -0.48063743114471436, -0.9649564623832703, 0.6588073968887329, 0.1970517635345459, -0.6102076172828674, 0.10873845964670181, -0.8077406287193298, -0.368848592042923, -0.12719842791557312, 0.6751906871795654, 0.38935768604278564, -0.5011450052261353, -0.15437613427639008, 0.3359057903289795, -0.717817485332489, 0.3838634788990021, 0.2901386618614197, 0.48353850841522217, -0.6107990145683289, -0.5361957550048828, 0.7134248614311218, -0.23402243852615356, 0.7201987504959106, -0.15099525451660156, 0.04907413199543953, -0.7123594880104065, 0.013850879855453968, 0.13397985696792603, 0.773554265499115, 0.06446830183267593, 0.28046783804893494, 0.8523090481758118, 0.5071324110031128, -0.41710880398750305, -0.45640677213668823, -0.4631374180316925, 0.20721861720085144, -0.6438705921173096, 0.28913363814353943, -0.3361649513244629, -0.6151810884475708, 0.22793826460838318, -0.03297995403409004, -0.6945656538009644, 0.532514750957489, -0.4852522611618042, 0.8728396892547607, 0.7949626445770264, -0.2723376452922821, 0.5272222757339478, -0.20768414437770844, 0.27827247977256775, -0.8796583414077759, -0.8753769993782043, 0.07969128340482712, -0.15578588843345642, 0.3170902132987976, 0.8671801686286926, -0.24390806257724762, 0.43188807368278503, 0.9528257250785828, 0.2574450671672821, -0.42182114720344543, 0.6341063976287842, 0.8852261304855347, 0.031810224056243896, 0.13856914639472961, -0.1654411107301712, -0.5093922019004822, 0.26759663224220276, 0.8593651056289673, -0.9371424317359924, -0.6793081164360046, 0.0896981731057167, 0.13464877009391785, -0.927428126335144, 0.4925462007522583, 0.9693301916122437, 0.6595177054405212, 0.8683822751045227, 0.032230645418167114, -0.10251973569393158, -0.7422609925270081, -0.1670474112033844, 0.5604334473609924, -0.1505349725484848, -0.5034072995185852, -0.7788397669792175, -0.8335413336753845, -0.8384860754013062, -0.9945023655891418, -0.9548526406288147, -0.03241005539894104, 0.783100426197052, 0.3717283010482788, 0.5970688462257385, -0.46939727663993835, 0.5963802933692932, 0.4216703176498413, -0.42852646112442017, -0.31824806332588196, 0.0461055152118206, 0.0731269121170044, -0.8711706399917603, 0.03132927790284157, -0.4064667522907257, -0.21963262557983398, -0.08587397634983063, -0.3690452575683594, -0.40444105863571167, 0.8758138418197632, 0.7898831367492676, 0.3093681335449219, 0.2833355963230133, -0.9694210290908813, -0.5052986741065979, -0.8971096873283386, -0.9177602529525757, -0.9730186462402344, 0.4987282156944275, -0.27312028408050537, -0.44825273752212524, 0.491054505109787, 0.9469100832939148, -0.5310909152030945, -0.4202578663825989, -0.8063043355941772, 0.8952828049659729, 0.7020127177238464, -0.08499465137720108, -0.1447652280330658, -0.35971301794052124, 0.43700891733169556, -0.5094199180603027, 0.5309810042381287, -0.7128293514251709, -0.28676536679267883, -0.6413450837135315, 0.0866435319185257, -0.24685370922088623, -0.625994086265564, 0.06231928989291191, -0.8800004720687866, -0.204281285405159, 0.3777037560939789, 0.4497215449810028, 0.8378686308860779, 0.153066024184227, 0.42905232310295105, 0.5646923780441284, 0.03712081536650658, -0.3500223159790039, 0.4882723093032837, -0.5101847052574158, -0.28638705611228943, -0.24854442477226257, 0.6937776207923889, 0.3583316504955292, 0.6627122759819031, 0.30470001697540283, 0.7625055313110352, -0.5126997828483582, 0.8722209930419922, 0.2939418852329254, 0.49846765398979187, -0.13398902118206024, 0.6595842242240906, 0.5017207264900208, -0.33099111914634705, 0.9203717708587646, -0.4857212007045746, -0.42056241631507874, -0.13072332739830017, 0.41618332266807556, -0.3824293613433838, 0.3283957540988922, -0.24360691010951996, -0.35713282227516174, 0.23005303740501404, 0.6801720261573792, -0.773607075214386, 0.7363963723182678, 0.040053464472293854, 0.7797694802284241, 0.8758566975593567, 0.2642423212528229, -0.5509565472602844, -0.6382164359092712, 0.08215644955635071, 0.43048834800720215, -0.7808875441551208, 0.22870446741580963, 0.1388147473335266, -0.6070919632911682, -0.3316924571990967, 0.6199957728385925, -0.6386813521385193, 0.01729685626924038, -0.33643442392349243, -0.24208129942417145, -0.5987184643745422, 0.9554098844528198, 0.5400713682174683, 0.20137877762317657, 0.791263222694397, -0.048338841646909714, 0.5814989805221558, 0.6085450649261475, -0.43622878193855286, -0.7433726191520691, 0.8551806211471558, -0.31511059403419495, 0.4363279640674591, -0.7864205837249756, 0.1474846601486206, -0.6596037745475769, -0.3665313124656677, -0.5345875024795532, -0.7775660157203674, 0.8854853510856628, 0.8436749577522278, -0.34310874342918396, -0.9171401262283325, 0.5396461486816406, -0.2077038437128067, 0.18761129677295685, -0.5860609412193298, 0.7693488597869873, 0.7045568227767944, 0.1574372947216034, -0.21871943771839142, 0.8351898789405823, -0.3651461601257324, 0.7195755839347839, 0.76226806640625, 0.14620822668075562, 0.40370747447013855, 0.14188212156295776, -0.4698044955730438, 0.6573857069015503, 0.4302923083305359, 0.9917093515396118, 0.20914003252983093, 0.8083906173706055, -0.7356467247009277, -0.5330154895782471, -0.9258631467819214, -0.11866362392902374, -0.7482511401176453, 0.13596951961517334, 0.9919347763061523, -0.07661280035972595, -0.5036693215370178, 0.99701988697052, -0.06047738343477249, 0.9462350606918335, -0.6699784398078918, -0.14192281663417816, 0.5389057993888855, -0.6761956214904785, 0.8486872315406799, -0.3348213732242584, -0.7452006340026855, 0.767884373664856, 0.6463626027107239, -0.18261511623859406, 0.7214797139167786, -0.10490092635154724, 0.16531647741794586, 0.6183632612228394, 0.7504716515541077, -0.7352739572525024, 0.4590699076652527, -0.749190092086792, 0.5986389517784119, 0.6107222437858582, -0.3219255208969116, 0.45500272512435913, -0.09660489112138748, -0.05325748771429062, -0.2241678535938263, -0.8537522554397583, 0.9858776330947876, 0.9119786024093628, 0.28020796179771423, -0.18142256140708923, -0.9670782685279846, -0.025509078055620193, 0.06146040931344032, 0.9005045890808105, 0.7057843804359436, 0.8448616862297058, 0.546584963798523, 0.8269628286361694, 0.8034793734550476, 0.5326945781707764, -0.925654411315918, -0.5867959856987, -0.6226084232330322, -0.4009959399700165, -0.8495115637779236, -0.989365816116333, 0.7496010661125183, 0.7312400937080383, -0.32266318798065186, -0.17965289950370789, -0.4739927351474762, 0.09582242369651794, 0.8537967801094055, -0.8807278871536255, 0.9125176072120667, -0.9536637663841248, -0.6466274857521057, -0.6383444666862488, 0.6373711228370667, -0.3533580005168915, -0.39463698863983154, 0.6183896660804749, 0.24490195512771606, 0.9903168678283691, 0.2765636444091797, -0.9047901034355164, 0.15727709233760834, 0.24170903861522675, 0.72780841588974, 0.8115631937980652, 0.3429931402206421, 0.3662531077861786, -0.3513203263282776, -0.29151755571365356, -0.4616486430168152, 0.07894355058670044, 0.4908500611782074, 0.7059762477874756, -0.9785683751106262, 0.6898030638694763, -0.7836673259735107, 0.10757648199796677, 0.395920068025589, -0.8152416348457336, 0.759485125541687, 0.3924795687198639, 0.2848697304725647, -0.3905324637889862, -0.8925065994262695, -0.8024067878723145, 0.43764546513557434, 0.3579767942428589, 0.1299925297498703, 0.7099570631980896, -0.6129125952720642, -0.6094822287559509, 0.0810956060886383, 0.38691505789756775, -0.25159376859664917, -0.9076427817344666, -0.24616941809654236, -0.17498673498630524, 0.13520488142967224, -0.3565087914466858, 0.20824386179447174, 0.4590948522090912, -0.6719028949737549, 0.8806037306785583, -0.3203285038471222, 0.9951964616775513, 0.03641125187277794, -0.3513736426830292, -0.7250677347183228, -0.1422179788351059, -0.7895486354827881, 0.13245771825313568, -0.16802531480789185, -0.8278659582138062, 0.8750632405281067, 0.17684738337993622, -0.8297225832939148, -0.7980789542198181, -0.18137046694755554, -0.9452858567237854, 0.11916343867778778, -0.9602128267288208, -0.595228374004364, 0.730076014995575, -0.7329402565956116, 0.452413946390152, 0.318355530500412, -0.5093891024589539, -0.9856403470039368, -0.8998651504516602, -0.27227547764778137, -0.6971330046653748, 0.5197843909263611, -0.7387027740478516, 0.6152601838111877, 0.3377756178379059, 0.5401691794395447, 0.5370572805404663, -0.4973343014717102, -0.8282592296600342, 0.6804925799369812, 0.39062750339508057, -0.769321858882904, 0.14461830258369446, 0.3237777352333069, -0.37173372507095337, -0.22936518490314484, -0.40405336022377014, 0.5055273175239563, -0.02054135501384735, 0.05646717548370361, 0.23363444209098816, 0.6105386018753052, 0.8251354098320007, 0.32507452368736267, 0.41482436656951904, 0.2593958377838135, 0.5890125632286072, 0.3674524128437042, -0.3573966920375824, 0.6986576914787292, -0.05076451972126961, 0.17550738155841827, 0.36336639523506165, 0.5653678774833679, 0.8846641182899475, 0.4482138454914093, -0.9330753087997437, -0.0013404993806034327, 0.3981044292449951, -0.4458935856819153, 0.19711977243423462, -0.8819061517715454, -0.3617037832736969, 0.1743176430463791, -0.8874707221984863, -0.8581718802452087, 0.36895817518234253, -0.10182631015777588, -0.06996840238571167, 0.4085812270641327, 0.2713104486465454, -0.8303287029266357, -0.6540215611457825, -0.10269448906183243, 0.9082933068275452, 0.8318231105804443, -0.294604629278183, -0.9289190769195557, -0.8880544304847717, -0.9354333281517029, 0.9138233065605164, -0.05344068259000778, 0.4110616445541382, 0.5528706312179565, -0.8629029989242554, -0.38399532437324524, -0.07309658825397491, 0.48280099034309387, -0.20147211849689484, -0.023052755743265152, 0.44201338291168213, 0.2586022913455963, 0.34235212206840515, -0.009134896099567413, 0.36478206515312195, 0.36769652366638184, 0.9007552266120911, -0.03888913616538048, 0.4516456127166748, 0.3003075122833252, -0.005375926848500967, -0.8631919026374817, 0.9457373023033142, 0.46995967626571655, 0.8732996582984924, 0.32051658630371094, 0.3771742284297943, -0.5723433494567871, -0.21063101291656494, -0.044756148010492325, -0.30001020431518555, 0.9198097586631775, -0.7902026772499084, -0.45097634196281433, 0.580687940120697, 0.8819730281829834, -0.3080883324146271, -0.4486221969127655, -0.6267869472503662, 0.6153576970100403, 0.013451987877488136, -0.3244211971759796, 0.8341315984725952, -0.2895573079586029, -0.2592734396457672, -0.8402870893478394, -0.6158872842788696, 0.5184636116027832, -0.0051978835836052895, 0.21879108250141144, -0.8568422198295593, 0.8856213688850403, -0.6508076190948486, 0.8320252895355225, -0.317686527967453, -0.5635459423065186, -0.2903190553188324, 0.941434919834137, 0.13918666541576385, 0.16074925661087036, -0.6887568831443787, -0.6993771195411682, 0.0734100192785263, 0.7278600931167603, -0.48022061586380005, 0.5533306002616882, -0.27320271730422974, -0.8359542489051819, 0.6321925520896912, 0.5500666499137878, 0.7979828119277954, -0.21336933970451355, 0.7219692468643188, 0.3984219431877136, 0.6175318956375122, -0.41978657245635986, -0.8178513050079346, -0.4295434057712555, -0.6722379922866821, 0.7555022239685059, 0.8358394503593445, -0.8960434198379517, -0.018623409792780876, 0.5267478227615356, 0.3984752297401428, 0.7332369089126587, 0.987403929233551, -0.1208256185054779, 0.8441559076309204, 0.5308817028999329, 0.6981607675552368, -0.6990845799446106, 0.7834467887878418, 0.09811156243085861, -0.2009577602148056, -0.020456725731492043, 0.22196944057941437, 0.04247968643903732, 0.14685040712356567, 0.5120641589164734, 0.5511140823364258, -0.4410571753978729, 0.0972612127661705, -0.9754936099052429, -0.7635847330093384, 0.9392264485359192, -0.05398331955075264, 0.5403529405593872, 0.8809746503829956, 0.4337330162525177, 0.9001485705375671, -0.854590117931366, 0.266796350479126, -0.41920995712280273, -0.9198516011238098, 0.035597629845142365, -0.43941670656204224, 0.11352381110191345, 0.8466548919677734, -0.13393665850162506, 0.5975854992866516, -0.6284813284873962, -0.03387920558452606, 0.9396106600761414, -0.6040705442428589, 0.6074844002723694, -0.5324220657348633, 0.708785355091095, 0.4681057631969452, -0.3135180175304413, -0.24231848120689392, 0.8573215007781982, 0.2807616591453552, -0.5072005391120911, 0.5796499252319336, -0.27159836888313293, -0.9692872166633606, 0.7118077278137207, -0.019424214959144592, 0.7268226742744446, -0.26706385612487793, 0.005347433965653181, 0.6252897381782532, -0.5945789217948914, 0.9376424551010132, -0.39321407675743103, 0.2835851013660431, -0.8907353281974792, 0.1380893439054489, 0.2834177315235138, 0.36545729637145996, 0.19108591973781586, -0.1748499572277069, 0.753274142742157, 0.940090537071228, -0.15477018058300018, 0.421339750289917, -0.17554312944412231, -0.8773439526557922, -0.3058173656463623, 0.9308435320854187, 0.3040485084056854, -0.9401617050170898, 0.989473283290863, 0.1358206421136856, -0.8640431761741638, 0.20348159968852997, -0.24283187091350555, -0.5113165378570557, -0.3434354364871979, 0.7087888121604919, 0.9050389528274536, -0.8271807432174683, 0.16829609870910645, -0.6425442099571228, 0.1914265900850296, 0.5783167481422424, 0.043658722192049026, -0.2503015398979187, -0.5670987963676453, 0.46986937522888184, -0.005989177618175745, 0.10852625221014023, 0.6924076080322266, -0.8539013862609863, -0.5371701717376709, -0.9173269271850586, 0.4553084969520569, -0.3940148651599884, -0.6183992028236389, -0.03742121532559395, 0.37153878808021545, -0.759254515171051, -0.12115022540092468, 0.6632912755012512, 0.8855921030044556, -0.13001081347465515, -0.9295142292976379, 0.4810809791088104, -0.817709743976593, -0.8254995942115784, 0.517885684967041, -0.3838791847229004, -0.6472588777542114, -0.18082179129123688, 0.2548879086971283, 0.35082149505615234, -0.6693498492240906, 0.2673215866088867, -0.5414777994155884, -0.17694289982318878, 0.23683667182922363, -0.6336050033569336, -0.9581972360610962, -0.8746010661125183, 0.6159133911132812, -0.4446234703063965, 0.6949658393859863, 0.8143824934959412, 0.6084288358688354, -0.6197744607925415, 0.49462419748306274, -0.4514352083206177, 0.6102897524833679, 0.9603851437568665, 0.9509803652763367, -0.26115527749061584, 0.5206607580184937, 0.4465322494506836, -0.6639496088027954, -0.7049883604049683, -0.8956437706947327, 0.23334035277366638, -0.8560872077941895, 0.9600620269775391, 0.8442803025245667, -0.8779181838035583, -0.4509783983230591, -0.7313013672828674, 0.7492247819900513, -0.5291260480880737, -0.6144430041313171, -0.8942487239837646, -0.662426769733429, 0.3604046106338501, 0.3266236484050751, -0.061187319457530975, -0.8647332191467285, -0.847798764705658, -0.5887741446495056, -0.3708857595920563, -0.34299126267433167, -0.9183574914932251, 0.5426316261291504, 0.7561993598937988, -0.19792777299880981, -0.368517130613327, -0.8860971331596375, -0.19733251631259918, -0.609090268611908, 0.34922873973846436, 0.31693148612976074, -0.16267208755016327, -0.3262346386909485, 0.15539374947547913, 0.09548500180244446, 0.3969455659389496, 0.13373279571533203, 0.2348075658082962, -0.7040202617645264, -0.7977451682090759, -0.3413052260875702, 0.8566590547561646, -0.4676978290081024, -0.43711885809898376, -0.6479141116142273, -0.3614184856414795, -0.7200399041175842, -0.3856229782104492, 0.3441947400569916, 0.06962328404188156, -0.5215237736701965, 0.44886621832847595, -0.36099544167518616, 0.5600729584693909, -0.5867797136306763, 0.4288681447505951, -0.9156149625778198, -0.13992264866828918, 0.9933801293373108, 0.29699206352233887, 0.23831437528133392, 0.6300588250160217, 0.9899879693984985, 0.5980470180511475, -0.1489255726337433, 0.1370885968208313, -0.43981119990348816, -0.3992341160774231, 0.78789883852005, 0.5161573886871338, -0.6332384347915649, 0.9676462411880493, 0.5395349264144897, -0.7491187453269958, 0.3320794701576233, 0.6992030143737793, -0.814949631690979, -0.4449370503425598, 0.2353060096502304, 0.7496150732040405, 0.8514561653137207, -0.2149595469236374, 0.6792218089103699, 0.903038740158081, 0.8302350640296936, -0.13810621201992035, 0.27505770325660706, 0.14073379337787628, 0.24658650159835815, -0.7854089736938477, 0.47292840480804443, -0.64393550157547, -0.3163493573665619, -0.6704409122467041, -0.21720170974731445, -0.4702593982219696, 0.678874671459198, 0.9660946726799011, 0.3985162377357483], "expected": [0.022397248074412346, 0.026170706376433372, 0.06071243807673454, 0.011978751979768276, 0.004630219656974077, 0, 0.05184687301516533, 0.06376247107982635, 0.04119220748543739, 0, 0.045501869171857834, 0, 0, 0, 0, 0, 0, 0.013125432655215263, 0, 0, 0.0551484078168869, 0.010015999898314476, 0, 0.09581438452005386, 0.014599050395190716, 0, 0.05193176493048668, 0.021112535148859024, 0, 0, 0, 0.005916495807468891, 0.1034206971526146, 0, 0.022830424830317497, 0.023136837407946587, 0.0008851491729728878, 0.02885514870285988, 0, 0, 0, 0, 0.02813873440027237, 0.057384371757507324, 0, 0.018364856019616127, 0.030008802190423012, 0.019976351410150528, 0.05729949101805687, 0, 0.05937141180038452, 0, 0, 0.05958900228142738, 0.03291332721710205, 0.030056489631533623, 0.0006905168993398547, 0.04067547246813774, 0.002638460136950016, 0, 0, 0, 0, 0.018239861354231834, 0.0012531717075034976, 0.010933628305792809, 0, 0, 0.020854854956269264, 0.009371819905936718, 0, 0, 0.03981472924351692, 0, 0.02117561176419258, 0.016209464520215988, 0, 0.01845046691596508, 0.019159458577632904, 0, 0, 0.03415815532207489, 0.01705770567059517, 0.06597060710191727, 0.038607798516750336, 0.05681450664997101, 0, 0.013299847953021526, 0.004906645976006985, 0, 0.0397581048309803, 0, 0, 0, 0.024380220100283623, 0.055937912315130234, 0, 0, 0, 0, 0, 0.042891815304756165, 0, 0, 0, 0, 0.009310152381658554, 0, 0.028945527970790863, 0.008569259196519852, 0.02257477678358555, 0, 0, 0.013675766997039318, 0.03563743457198143, 0, 0.023163890466094017, 0, 0.018352927640080452, 0.05635844171047211, 0, 0, 0, 0.004181546624749899, 0, 0, 0, 0, 0, 0, 0.0343983918428421, 0.032204657793045044, 0, 0, 0, 0.010671965777873993, 0.042800500988960266, 0.012383910827338696, 0.06051483750343323, 0.016676006838679314, 0, 0.055784329771995544, 0, 0.01625969633460045, 0, 0, 0.0036494536325335503, 0, 0.043819911777973175, 0, 0, 0.04649782180786133, 0, 0.011452821083366871, 0.06660492718219757, 0, 0, 0, 0.00470059085637331, 0, 0, 0.02244044840335846, 0, 0.013218781910836697, 0.04886377230286598, 0.03660118579864502, 0.014932569116353989, 0.002849901793524623, 0, 0.004956505261361599, 0, 0.01018891204148531, 0, 0, 0, 0.003009307198226452, 0.03267012909054756, 0, 0, 0, 0, 0, 0.00870002806186676, 0, 0, 0.0029455164913088083, 0.018205737695097923, 0, 0, 0, 0.001273133559152484, 0.030329447239637375, 0.027673719450831413, 0.01092806551605463, 0, 0, 0, 0, 0.006551990285515785, 0, 0, 0.007445248309522867, 0, 0, 0.015384750440716743, 0.023634048178792, 0, 0, 0, 0, 0, 0, 0, 0.03551075607538223, 0.030890295282006264, 0.02728068269789219, 0.043062739074230194, 0, 0.011759643442928791, 0.014493844471871853, 0, 0, 0, 0.03084426000714302, 0.07751444727182388, 0.008603664115071297, 0.04546675086021423, 0, 0, 0.02126767300069332, 0.024206800386309624, 0.04825814440846443, 0, 0.045554954558610916, 0.042466603219509125, 0.07946520298719406, 0, 0.023909173905849457, 0.01774788461625576, 0, 0, 0.03844083100557327, 0.02971048466861248, 0, 0, 0, 0, 0, 0.04114578291773796, 0, 0, 0, 0, 0, 0, 0, 0.021314285695552826, 0.013558246195316315, 0.016954630613327026, 0, 0, 0.05850433185696602, 0, 0.0010415897704660892, 0, 0.01329570822417736, 0, 0.0034252391196787357, 0.020487230271100998, 0, 0, 0, 0.07806786894798279, 0, 0, 0, 0.025157220661640167, 0, 0.015038823708891869, 0.03679439425468445, 0, 0.08173317462205887, 0.03639204427599907, 0, 0.009195851162075996, 0.01411411166191101, 0.016889110207557678, 0, 0.0035103941336274147, 0, 0.01557593047618866, 0, 0.008886672556400299, 0.03552994132041931, 0.012428265996277332, 0, 0.005334875546395779, 0, 0.002391486195847392, 0, 0, 0.0067399111576378345, 0.010650532320141792, 0.021565981209278107, 0.027591457590460777, 0, 0, 0.05435056611895561, 0.018280692398548126, 0.016022520139813423, 0.010729796253144741, 0.026278868317604065, 0.06258615106344223, 0, 0.005159392952919006, 0, 0, 0, 0.017972856760025024, 0, 0.014603933319449425, 0.016353892162442207, 0, 0, 0, 0.06085750833153725, 0, 0, 0, 0.005963989533483982, 0.03505839407444, 0.009297361597418785, 0.033722806721925735, 0.00875809881836176, 0.04553383216261864, 0, 0, 0.001725117559544742, 0.013717333786189556, 0.009666761383414268, 0.04095184803009033, 0.04016876593232155, 0, 0.017780901864171028, 0, 0.03309071809053421, 0, 0.00043760519474744797, 0, 0.009824101813137531, 0.008586861193180084, 0, 0.018788490444421768, 0, 0.06368271261453629, 0.012322315014898777, 0, 0.017112325876951218, 0.020939398556947708, 0, 0.018766799941658974, 0.028865685686469078, 0, 0.0080562187358737, 0.03434634953737259, 0.011707518249750137, 0, 0, 0.02240857295691967, 0, 0, 0.025522660464048386, 0, 0.01787049137055874, 0, 0, 0, 0, 0, 0.01050598919391632, 0.04217158630490303, 0, 0.009963818825781345, 0.08910072594881058, 0, 0, 0, 0.04143841564655304, 0.09810192137956619, 0, 0, 0.0377526693046093, 0.014296854846179485, 0, 0, 0.006986362859606743, 0, 0.010334293358027935, 0, 0, 0, 0, 0, 0, 0, 0, 0, 0.060026198625564575, 0, 0.0068194447085261345, 0, 0, 0.006253237836062908, 0.0329459048807621, 0, 0.03175180405378342, 0.009349540807306767, 0.03852224722504616, 0, 0, 0, 0.04150586575269699, 0.0012223317753523588, 2.6467021598364227e-05, 0, 0.002112775109708309, 0, 0.012112205848097801, 0.03191309794783592, 0, 0, 0.03328552469611168, 0.0072119818069040775, 0.02104182541370392, 0.021388832479715347, 0.025463972240686417, 0.03305170685052872, 0, 0.0023058727383613586, 0, 0.06106090918183327, 0, 0, 0.10602552443742752, 0, 0.005542420782148838, 0.030811907723546028, 0, 0, 0.05666527897119522, 0.013172155246138573, 0, 0.024374783039093018, 0, 0.010408258996903896, 0, 0, 0.026900475844740868, 0, 0.02360519953072071, 0, 0.00766684440895915, 0, 0, 0.016421720385551453, 0.026771025732159615, 0.024508807808160782, 0.054400090128183365, 0, 0, 0, 0.03104003518819809, 0.016287786886096, 0, 0.02306625060737133, 0, 0.016513248905539513, 0, 0, 0, 0, 0.00939199049025774, 0, 0.005390998441725969, 0, 0.006450963206589222, 0, 0.022933660075068474, 0, 0, 0, 0.010364183224737644, 0.008733779191970825, 0.03138033673167229, 0.015008540824055672, 0.028542259708046913, 0.0028120840433984995, 0, 0.01132765132933855, 0.020398927852511406, 0.06440836936235428, 0, 0.014172004535794258, 0, 0.001792530296370387, 0, 0, 0.03198128938674927, 0, 0.0087667815387249, 0.01086345873773098, 0, 0, 0, 0.013994907960295677, 0, 0, 0, 0.043207455426454544, 0.06942746788263321, 0.010076692327857018, 0.0003216109180357307, 0, 0, 0.06532051414251328, 0.028794454410672188, 0.07447031885385513, 0.06289725750684738, 0.007347543258219957, 0.08861801773309708, 0.0030446178279817104, 0, 0, 0, 0.01529656071215868, 0, 0.005795193836092949, 0, 0.014372034929692745, 0, 0, 0.01836266554892063, 0.000131379027152434, 0, 0, 0.014582628384232521, 0.01304690446704626, 0.01295225415378809, 0.0020644748583436012, 0.031017711386084557, 0, 0, 0, 0, 0.008620885200798512, 0, 0, 0, 0, 0.010923560708761215, 0.013300520367920399, 0, 0.028636282309889793, 0, 0, 0, 0, 0, 0.0066154152154922485, 0.021429242566227913, 0, 0.02761823497712612, 0, 0.022202173247933388, 0, 0, 0, 0.0019516238244250417, 0, 0, 0, 0, 0, 0, 0.01323672104626894, 0.036587756127119064, 0.0396110936999321, 0.010445586405694485, 0.029908590018749237, 0, 0, 0.030306508764624596, 0.02766885980963707, 0.0007806746871210635, 0.033062245696783066, 0, 0, 0.012718630023300648, 0.009436285123229027, 0.02932523749768734, 0.0248773992061615, 0, 0, 0.05899202078580856, 0, 0, 0.046057529747486115, 0.009881356731057167, 0, 0.08267088234424591, 0.03786240890622139, 0.039474114775657654, 0.04537463188171387, 0.009907985106110573, 0.023526417091488838, 0.009910526685416698, 0.07350550591945648, 0, 0.008650517091155052, 0.06572463363409042, 0.03177882730960846, 0.03091701865196228, 0.01189026702195406, 0, 0, 0, 0, 0, 0.02545897848904133, 0, 0.020743126049637794, 0, 0, 0, 0.027438923716545105, 0.05928007513284683, 0.016952935606241226, 0, 0.045940324664115906, 0.0073910728096961975, 0.04374153912067413, 0.04422612488269806, 0.01820424012839794, 0, 0, 0.009702619165182114, 0, 0.010589614510536194, 0, 0, 0.014762031845748425, 0, 0, 0.01652372255921364, 0, 0.06378135085105896, 0, 0.028182253241539, 0.04931361600756645, 0, 0, 0, 0, 0, 0.030529117211699486, 0.044462647289037704, 0.032908305525779724, 0.024569116532802582, 0, 0, 0.03578365221619606, 0.0039025433361530304, 0.012738882564008236, 0, 0.020388761535286903, 0.011568314395844936, 0, 0, 0, 0, 0.01959042437374592, 0, 0, 0, 0.015076574869453907, 0.04790681600570679, 0.026611678302288055, 0.05311620607972145, 0, 0.014568343758583069, 0.0015971248503774405, 0.002878697821870446, 0.0034499368630349636, 0.03141595795750618, 0.04369714856147766, 0, 0, 0, 0.06579343229532242, 0.010676008649170399, 0, 0, 0.0013432028936222196, 0.03765910118818283, 0, 0, 0.058888841420412064, 0.011336046271026134, 0, 0.009719806723296642, 0, 0, 0.04884082451462746, 0.025139233097434044, 0, 0.07291299104690552, 0.033037446439266205, 0, 0.036876142024993896, 0, 0.06646262109279633, 0.004309637472033501, 0.03361506760120392, 0, 0.03451809287071228, 0, 0, 0, 0.008801671676337719, 0.003897465765476227, 0, 0.003772470634430647, 0.0011845568660646677, 0, 0.01762687787413597, 0.005242759361863136, 0.006447746884077787, 0, 0, 0.03490898013114929, 0, 0.059098828583955765, 0, 0, 0, 0, 0.0037885834462940693, 0.0040736994706094265, 0.03387349471449852, 0, 0.020965401083230972, 0, 0.022671524435281754, 0, 0, 0, 0, 0.011472734622657299, 0, 0.01541337464004755, 0.0038102068938314915, 0, 0, 0, 0.009542101994156837, 0, 0.030185647308826447, 0, 0, 0, 0, 0, 0, 0, 0, 0, 0, 0, 0, 0.02614254131913185, 0, 0.025539416819810867, 0, 0.016178350895643234, 0.009511318057775497, 0.02902510203421116, 0, 0, 0.07528889924287796, 0.06130950525403023, 0.016160082072019577, 0.04450228810310364, 0.023993385955691338, 0.017738617956638336, 0.008062370121479034, 0.024367187172174454, 0, 0.002236646134406328, 0.08291907608509064, 0.00813200417906046, 0.015212240628898144, 0.09116779267787933, 0.016138950362801552, 0.03449823707342148, 0, 0.014198713935911655, 0, 0.04045737162232399, 0, 0.038839638233184814, 0.010044972412288189, 0, 0.025195902213454247, 0.058081064373254776, 0, 0.043725453317165375, 0, 0, 0, 0, 0, 0, 0.013915388844907284, 0, 0, 0.05822748318314552, 0.03325024992227554, 0.044278137385845184, 0.03623168170452118, 0.05195550248026848, 0, 0, 0.023329544812440872, 0.03484025225043297, 0, 0, 0, 0, 0.019092069938778877, 0.022052722051739693, 0.023546813055872917, 0.025028251111507416, 0.05755091458559036, 0, 0, 0, 0.026613179594278336, 0.04845501855015755, 0, 0.02275199443101883, 0.04882381111383438, 0, 0, 0.08521614223718643, 0, 0.0011227214708924294, 0.04371120408177376, 0.007532264571636915, 0.01839064434170723, 0, 0.0821727067232132, 0, 0.010778139345347881, 0.010242360644042492, 0, 0, 0, 0, 0, 0.029841376468539238, 0.017468584701418877, 0, 0.0682298094034195, 0.06221567839384079, 0, 0, 0.044191136956214905, 0, 0, 0.07327358424663544, 0, 0.041714321821928024, 0, 0, 0.008841597475111485, 0.012536340393126011, 0.025373674929142, 0, 0.007024921011179686, 0.030211197212338448, 0.05106203258037567, 0, 0, 0.055288441479206085, 0, 0, 0.039225708693265915, 0.0019895269069820642, 0.00182826176751405, 0, 0, 0, 0, 0.007421469781547785, 0.021158846095204353, 0.003059772541746497, 0.05106716603040695, 0, 0, 0.022839823737740517, 0.044076815247535706, 0, 0, 0.036138154566287994, 0, 0, 0.011772813275456429, 0, 0.04674335941672325, 0, 0, 0.030297957360744476, 0, 0, 0, 0.03261746093630791, 0.02245927043259144, 0, 0, 0.025400355458259583, 0, 0, 0.01171901635825634, 0.013589802198112011, 0, 0.0002122360310750082, 0.09921084344387054, 0.0003737922525033355, 0.008143221028149128, 0.03670275956392288, 0.06349817663431168, 0.013035740703344345, 0.055511947721242905, 0, 0, 0.023807309567928314, 0, 0.04995522275567055, 0.11852855980396271, 0, 0.03727446496486664, 0.003131064586341381, 0.01986297033727169, 0, 0, 0, 0.02304881252348423, 0.032589104026556015, 0.023670172318816185, 0, 0, 0, 0, 0, 0.06584983319044113, 0.00016201568359974772, 0, 0, 0, 0, 0.0013812739634886384, 0.05779983848333359, 0.05141932889819145, 0.03721223771572113, 0, 0.05042493715882301, 0.04596099257469177, 0.021587468683719635, 0.0213466789573431, 0.05888063460588455, 0, 0.018207652494311333, 0, 0.07919348031282425, 0, 0.009143387898802757, 0, 0, 0.019545650109648705, 0, 0, 0, 0, 0, 0, 0, 0, 0.02999681420624256, 0, 0.018562478944659233, 0, 0, 0.002705648308619857, 0.015295562334358692, 0.026933040469884872, 0, 0, 0.0029481162782758474, 0, 0.03632695972919464, 0, 0.018469903618097305, 0, 0.026312578469514847, 0, 0.025602269917726517, 0, 0, 0.006481810472905636, 0, 0.0034387412015348673, 0, 0, 0, 0.01563507877290249, 0, 0.0304975938051939, 0, 0.01567135937511921, 0, 0.036616001278162, 0, 0, 0, 0.02202025055885315, 0.06733626872301102, 0.010151716880500317, 0, 0, 0, 0, 0.023193079978227615, 0, 0, 0, 0, 0.02049192227423191, 0, 0.017896955832839012, 0, 0.07685545831918716, 0.038305629044771194, 0.03399696573615074, 0.025020163506269455, 0, 0, 0.04370548948645592, 0.023549117147922516, 0, 0, 0.00960864219814539, 0, 0.013470075093209743, 0.09611507505178452, 0, 0.0262115728110075, 0.04829839617013931, 0, 0.03142406418919563, 0, 0.0072565446607768536, 0.024829037487506866, 0, 0, 0.0011304054642096162, 0.006136537529528141, 0.08958621323108673, 0, 0.08034516125917435, 0.06042136251926422, 0.040498025715351105, 0, 0, 0.01585577242076397, 0.023993082344532013, 0.048569194972515106, 0.034427985548973083, 0, 0.03161497414112091, 0.0043180775828659534, 0.04178503155708313, 0, 0.06257794052362442, 0.02416505292057991, 0.016014594584703445, 0.044864360243082047, 0, 0, 0, 0, 0, 0.015166857279837132, 0.0002354463649680838, 0, 0, 0, 0, 0.025383275002241135, 0.09916959702968597, 0, 0, 0.05612657591700554, 0, 0, 0, 0.03702408820390701, 0.037371452897787094, 0, 0.009955640882253647, 0.06325366348028183, 0, 0, 0, 0, 0, 0.015527707524597645, 0.03545662760734558, 0.08088288456201553, 0.05957205593585968, 0, 0, 0.0465070903301239, 0, 0.0581655390560627, 0, 0.029447296634316444, 0, 0.025880303233861923, 0.04495465010404587, 0, 0, 0, 0, 0, 0, 0.0277792289853096, 0.011845259927213192, 0.04297415539622307, 0, 0, 0.029708698391914368, 0, 0, 0, 0.02944662794470787, 0, 0.0548451691865921, 0, 0.0685313269495964, 0, 0.007756327278912067, 0.035321194678545, 0, 0, 0, 0, 0, 0.07812311500310898, 0.07585102319717407, 0, 0.055551715195178986, 0, 0, 0.030159393325448036, 0.09381114691495895, 0.054181408137083054, 0.012144775129854679, 0.033097732812166214, 0.0006563664646819234, 0.029295936226844788, 0.011848893947899342, 0.041641250252723694, 0, 0, 0.013194216415286064, 0.049631163477897644, 0, 0.04769949987530708, 0, 0.007475423626601696, 0.020890410989522934, 0.0335414819419384, 0.014407772570848465, 0.031140465289354324, 0.03005414828658104, 0.007215843070298433, 0, 0.01847958192229271, 0, 0.004464686848223209, 0, 0, 0.0036226236261427402, 0.01904974691569805, 0.06737266480922699, 0, 0.040422551333904266, 0, 0.033101726323366165, 0.03937389701604843, 0, 0.03080359660089016, 0, 0, 0.03660805895924568, 0.003662757109850645, 0, 0.0041284142062067986, 0, 0.025239398702979088, 0, 0, 0.025991007685661316, 0, 0.020953958854079247, 0, 0.009973526932299137, 0, 0.04404453933238983, 